{"learner":{"attributes":{"scikit_learn":"{\"_estimator_type\": \"classifier\"}"},"feature_names":[],"feature_types":[],"gradient_booster":{"model":{"cats":{"enc":[],"feature_segments":[],"sorted_idx":[]},"gbtree_model_param":{"num_parallel_tree":"1","num_trees":"100"},"iteration_indptr":[0,1,2,3,4,5,6,7,8,9,10,11,12,13,14,15,16,17,18,19,20,21,22,23,24,25,26,27,28,29,30,31,32,33,34,35,36,37,38,39,40,41,42,43,44,45,46,47,48,49,50,51,52,53,54,55,56,57,58,59,60,61,62,63,64,65,66,67,68,69,70,71,72,73,74,75,76,77,78,79,80,81,82,83,84,85,86,87,88,89,90,91,92,93,94,95,96,97,98,99,100],"tree_info":[0,0,0,0,0,0,0,0,0,0,0,0,0,0,0,0,0,0,0,0,0,0,0,0,0,0,0,0,0,0,0,0,0,0,0,0,0,0,0,0,0,0,0,0,0,0,0,0,0,0,0,0,0,0,0,0,0,0,0,0,0,0,0,0,0,0,0,0,0,0,0,0,0,0,0,0,0,0,0,0,0,0,0,0,0,0,0,0,0,0,0,0,0,0,0,0,0,0,0,0],"trees":[{"base_weights":[-3.9322675E-8,5.381833E-1,-2.7161615E0,8.512259E-1,-7.454198E-2,-1.2264061E0,-3.2194402E0,9.108249E-1,-1.599597E0,6.514583E-2,-2.614049E0,-1.7364762E0,2.7453658E-1,-3.4084651E0,2.3121648E-1,1.0335726E0,4.4880873E-1,-6.4675725E-1,-4.733284E-2,2.3910534E-1,-1.9360914E0,-8.945735E-1,-2.2968861E-1,-2.1292555E0,1.2763095E-1,-3.5836477E0,1.08137466E-1,1.0626429E0,-2.6109955E-1,6.153368E-1,-5.6014246E-1,3.6021182E-1,-1.9750334E0,2.1841535E-1,-2.703911E0,-2.432925E0,5.9037488E-2,-1.1029143E0,-3.3088464E-1,3.2733908E-1,-1.1235993E-1,2.1452776E-1,-3.7405166E-1,1.4568563E-1,-4.7697362E-1,-7.134967E-1,-1.8020694E-1,-9.0498066E-1,-2.2968861E-1,-1.7717394E-1,-8.4464955E-1],"categories":[],"categories_nodes":[],"categories_segments":[],"categories_sizes":[],"default_left":[0,0,0,0,0,0,0,0,0,0,0,0,0,0,0,0,0,0,0,0,0,0,0,0,0,0,0,0,0,0,0,0,0,0,0,0,0,0,0,0,0,0,0,0,0,0,0,0,0,0,0],"id":0,"left_children":[1,3,5,7,9,11,13,15,17,19,21,23,-1,25,-1,27,29,-1,-1,31,33,-1,-1,35,-1,37,-1,39,-1,41,-1,43,45,-1,47,49,-1,-1,-1,-1,-1,-1,-1,-1,-1,-1,-1,-1,-1,-1,-1],"loss_changes":[4.3131943E2,4.7299606E1,3.2636627E1,2.5276527E1,3.003674E1,1.681302E1,2.9672852E1,8.60083E0,3.05587E0,2.8584856E1,7.183037E-1,1.0757126E1,0E0,2.4018158E1,0E0,7.8720245E0,1.4770549E1,0E0,0E0,2.0878412E1,1.5408369E1,0E0,0E0,7.5310593E0,0E0,3.5327759E0,0E0,5.4887543E0,0E0,7.152213E0,0E0,1.8418053E1,8.186579E-1,0E0,9.101448E-1,4.6144753E0,0E0,0E0,0E0,0E0,0E0,0E0,0E0,0E0,0E0,0E0,0E0,0E0,0E0,0E0,0E0],"parents":[2147483647,0,0,1,1,2,2,3,3,4,4,5,5,6,6,7,7,8,8,9,9,10,10,11,11,13,13,15,15,16,16,19,19,20,20,23,23,25,25,27,27,29,29,31,31,32,32,34,34,35,35],"right_children":[2,4,6,8,10,12,14,16,18,20,22,24,-1,26,-1,28,30,-1,-1,32,34,-1,-1,36,-1,38,-1,40,-1,42,-1,44,46,-1,48,50,-1,-1,-1,-1,-1,-1,-1,-1,-1,-1,-1,-1,-1,-1,-1],"split_conditions":[1.0949E2,6.246E1,1E0,1E0,1E0,1E0,1E0,1E0,4.28748E0,1E0,3.0978E0,1E0,2.7453658E-1,1E0,2.3121648E-1,1E0,1E0,-6.4675725E-1,-4.733284E-2,1E0,1E0,-8.945735E-1,-2.2968861E-1,1E0,1.2763095E-1,1E0,1.08137466E-1,1E0,-2.6109955E-1,1E0,-5.6014246E-1,1E0,7.46E1,2.1841535E-1,9.877E1,2E0,5.9037488E-2,-1.1029143E0,-3.3088464E-1,3.2733908E-1,-1.1235993E-1,2.1452776E-1,-3.7405166E-1,1.4568563E-1,-4.7697362E-1,-7.134967E-1,-1.8020694E-1,-9.0498066E-1,-2.2968861E-1,-1.7717394E-1,-8.4464955E-1],"split_indices":[2,2,324,539,1953,704,977,11,1,320,1,1980,0,144,0,581,755,0,0,535,1764,0,0,942,0,24,0,418,0,1075,0,1375,2,0,2,6,0,0,0,0,0,0,0,0,0,0,0,0,0,0,0],"split_type":[0,0,0,0,0,0,0,0,0,0,0,0,0,0,0,0,0,0,0,0,0,0,0,0,0,0,0,0,0,0,0,0,0,0,0,0,0,0,0,0,0,0,0,0,0,0,0,0,0,0,0],"sum_hessian":[2.9306192E2,2.4526642E2,4.779551E1,1.6207349E2,8.319293E1,1.293713E1,3.485838E1,1.588392E2,3.2342825E0,7.977897E1,3.4139647E0,1.0601259E1,2.3358707E0,3.3420918E1,1.4374589E0,1.24519875E2,3.4319332E1,1.976506E0,1.2577765E0,7.420882E1,5.570153E0,2.3358707E0,1.0780941E0,8.9841175E0,1.6171412E0,3.198346E1,1.4374589E0,1.2308241E2,1.4374589E0,3.270219E1,1.6171412E0,7.115421E1,3.0546E0,1.2577765E0,4.3123765E0,7.906024E0,1.0780941E0,3.0366318E1,1.6171412E0,1.2092623E2,2.1561882E0,3.1624096E1,1.0780941E0,6.756057E1,3.5936472E0,1.7968236E0,1.2577765E0,3.2342825E0,1.0780941E0,1.7968236E0,6.1092E0],"tree_param":{"num_deleted":"0","num_feature":"2058","num_nodes":"51","size_leaf_vector":"1"}},{"base_weights":[3.163788E-2,4.3551475E-1,-1.3832096E0,5.4003865E-1,-1.2374668E0,-8.689481E-1,-1.7185435E0,5.810932E-1,-6.146782E-1,2.592133E-1,-1.7367887E0,-1.7038448E0,-4.1295978E-1,-1.7897303E0,2.5729435E-2,6.266888E-1,-1.2481809E0,2.507151E-1,-2.0291658E-1,-1.8591318E0,-1.2784308E-1,-5.64616E-1,-4.7119264E-2,-1.3028279E-1,-1.1840388E0,-1.8575854E0,-1.0529172E-1,1.0990791E0,4.802492E-1,-1.6962799E0,7.3760115E-2,-2.0145689E-1,-6.1400914E-1,7.513275E-2,-3.894727E-1,-1.1483416E-1,-4.0225062E-1,-1.9297616E0,-7.3422885E-1,3.412714E-1,4.6002798E-2,1.7413504E-2,2.1287157E-1,-6.2753046E-1,-7.123424E-2,7.922764E-2,-3.3319426E-1,-5.947475E-1,-2.3637909E-1,4.489027E-2,-3.3944E-1],"categories":[],"categories_nodes":[],"categories_segments":[],"categories_sizes":[],"default_left":[0,0,0,0,0,0,0,0,0,0,0,0,0,0,0,0,0,0,0,0,0,0,0,0,0,0,0,0,0,0,0,0,0,0,0,0,0,0,0,0,0,0,0,0,0,0,0,0,0,0,0],"id":1,"left_children":[1,3,5,7,9,11,13,15,-1,17,19,21,23,25,-1,27,29,-1,-1,31,-1,-1,-1,33,35,37,-1,39,41,43,-1,-1,-1,45,-1,-1,-1,47,49,-1,-1,-1,-1,-1,-1,-1,-1,-1,-1,-1,-1],"loss_changes":[1.6230128E2,3.92957E1,9.384537E0,2.3362843E1,1.0384655E1,9.544842E0,4.9262924E0,1.7974518E1,0E0,2.82829E0,8.268986E-1,2.2373867E0,3.928389E0,2.8425064E0,0E0,1.3430557E1,3.9968433E0,0E0,0E0,6.1663246E-1,0E0,0E0,0E0,3.655429E0,1.0248709E-1,1.335701E0,0E0,1.5355301E0,1.5044113E1,1.949585E0,0E0,0E0,0E0,3.3309271E0,0E0,0E0,0E0,3.2157898E-1,1.4556469E0,0E0,0E0,0E0,0E0,0E0,0E0,0E0,0E0,0E0,0E0,0E0,0E0],"parents":[2147483647,0,0,1,1,2,2,3,3,4,4,5,5,6,6,7,7,9,9,10,10,11,11,12,12,13,13,15,15,16,16,19,19,23,23,24,24,25,25,27,27,28,28,29,29,33,33,37,37,38,38],"right_children":[2,4,6,8,10,12,14,16,-1,18,20,22,24,26,-1,28,30,-1,-1,32,-1,-1,-1,34,36,38,-1,40,42,44,-1,-1,-1,46,-1,-1,-1,48,50,-1,-1,-1,-1,-1,-1,-1,-1,-1,-1,-1,-1],"split_conditions":[3E0,1E0,4E0,1E0,8.671E1,1E0,1E0,1E0,-6.146782E-1,1E0,1E0,1E0,1E0,1E0,2.5729435E-2,2.693E1,4.1666666E-1,2.507151E-1,-2.0291658E-1,-3.5346E0,-1.2784308E-1,-5.64616E-1,-4.7119264E-2,1E0,4.28903E2,1E0,-1.0529172E-1,1E0,1E0,1E0,7.3760115E-2,-2.0145689E-1,-6.1400914E-1,1E0,-3.894727E-1,-1.1483416E-1,-4.0225062E-1,1E0,3.99564E2,3.412714E-1,4.6002798E-2,1.7413504E-2,2.1287157E-1,-6.2753046E-1,-7.123424E-2,7.922764E-2,-3.3319426E-1,-5.947475E-1,-2.3637909E-1,4.489027E-2,-3.3944E-1],"split_indices":[3,15,3,1193,2,90,1692,1057,0,399,376,1267,466,1755,0,2,8,0,0,1,0,0,0,1049,0,1462,0,2027,936,388,0,0,0,1107,0,0,0,1980,0,0,0,0,0,0,0,0,0,0,0,0,0],"split_type":[0,0,0,0,0,0,0,0,0,0,0,0,0,0,0,0,0,0,0,0,0,0,0,0,0,0,0,0,0,0,0,0,0,0,0,0,0,0,0,0,0,0,0,0,0,0,0,0,0,0,0],"sum_hessian":[2.8197525E2,2.1989659E2,6.2078644E1,2.0760324E2,1.2293354E1,2.5919815E1,3.615883E1,2.0512599E2,2.4772408E0,3.195613E0,9.097741E0,8.18917E0,1.7730644E1,3.4794147E1,1.3646797E0,2.007789E2,4.3471017E0,2.043314E0,1.1522989E0,7.938253E0,1.1594882E0,7.1487846E0,1.0403852E0,1.3829662E1,3.9009826E0,3.294909E1,1.8450574E0,4.597279E1,1.548061E2,3.239995E0,1.1071064E0,1.7074414E0,6.2308116E0,1.2556885E1,1.2727777E0,1.2016411E0,2.6993415E0,3.0285385E1,2.6637044E0,4.397993E1,1.9928576E0,5.4929302E1,9.987681E1,2.207641E0,1.0323541E0,1.1501374E1,1.055511E0,2.8244797E1,2.0405893E0,1.0192231E0,1.6444814E0],"tree_param":{"num_deleted":"0","num_feature":"2058","num_nodes":"51","size_leaf_vector":"1"}},{"base_weights":[2.028257E-2,4.8389977E-1,-7.6622325E-1,8.928971E-1,2.9141837E-1,-9.47838E-1,5.22017E-1,9.56928E-1,-3.356723E-1,3.766305E-1,-7.4602854E-1,-4.330832E-1,-1.22773E0,8.866497E-1,-5.2795786E-1,1.0081269E0,-1.8738328E-1,-3.0578694E-1,1.8497363E-1,4.4366828E-1,-1.1375616E0,4.3923357E-1,-1.4242619E0,-6.8353283E-1,8.5773706E-1,1.8798806E-1,-1.3279202E0,-8.297225E-2,1.0397587E0,1.0445082E0,-4.9660128E-2,4.898512E-1,-5.4431105E-1,-5.767712E-1,-4.711526E-1,2.530247E-1,-1.1662042E-1,-3.906263E-2,-1.7150007E0,-1.1929228E0,-8.311643E-2,2.926969E-1,6.261887E-2,1.4254142E-1,-1.3934298E0,5.389091E-2,3.366934E-1,3.1890526E-1,4.2497803E-2,1.6641378E-1,-3.487532E-1,-2.6353756E-1,-2.9270535E-2,-5.8059114E-1,-1.606272E-1,-4.355749E-1,-2.496253E-2,2.0454918E-1,-1.927132E-1,-4.358489E-1,-2.7697315E-2],"categories":[],"categories_nodes":[],"categories_segments":[],"categories_sizes":[],"default_left":[0,0,0,0,0,0,0,0,0,0,0,0,0,0,0,0,0,0,0,0,0,0,0,0,0,0,0,0,0,0,0,0,0,0,0,0,0,0,0,0,0,0,0,0,0,0,0,0,0,0,0,0,0,0,0,0,0,0,0,0,0],"id":2,"left_children":[1,3,5,7,9,11,13,15,17,19,21,23,25,27,-1,29,-1,-1,-1,31,33,35,37,39,41,-1,43,-1,45,47,-1,49,-1,51,-1,-1,-1,-1,53,55,57,-1,-1,-1,59,-1,-1,-1,-1,-1,-1,-1,-1,-1,-1,-1,-1,-1,-1,-1,-1],"loss_changes":[9.571273E1,1.2738377E1,2.3272358E1,4.439762E0,1.0337762E1,1.1812881E1,1.2105768E1,4.6800156E0,2.7986774E0,1.1243276E1,7.8365397E0,1.0842137E1,1.1042564E1,2.3522463E0,0E0,2.2581215E0,0E0,0E0,0E0,1.1528198E1,2.5124502E-1,1.6761854E0,2.011919E0,8.197033E0,2.2480536E-1,0E0,6.8586197E0,0E0,5.407171E-1,6.432457E-1,0E0,1.1444538E1,0E0,4.4293582E-1,0E0,0E0,0E0,0E0,2.030859E-1,4.075407E0,6.22412E0,0E0,0E0,0E0,3.7978592E0,0E0,0E0,0E0,0E0,0E0,0E0,0E0,0E0,0E0,0E0,0E0,0E0,0E0,0E0,0E0,0E0],"parents":[2147483647,0,0,1,1,2,2,3,3,4,4,5,5,6,6,7,7,8,8,9,9,10,10,11,11,12,12,13,13,15,15,19,19,20,20,21,21,22,22,23,23,24,24,26,26,28,28,29,29,31,31,33,33,38,38,39,39,40,40,44,44],"right_children":[2,4,6,8,10,12,14,16,18,20,22,24,26,28,-1,30,-1,-1,-1,32,34,36,38,40,42,-1,44,-1,46,48,-1,50,-1,52,-1,-1,-1,-1,54,56,58,-1,-1,-1,60,-1,-1,-1,-1,-1,-1,-1,-1,-1,-1,-1,-1,-1,-1,-1,-1],"split_conditions":[8.286E1,3.278E1,1E0,8E0,1E0,1E0,1E0,1E0,1E0,1E0,4.6E1,1E0,8.671E1,1E0,-5.2795786E-1,1E0,-1.8738328E-1,-3.0578694E-1,1.8497363E-1,1E0,1E0,3.7142858E-1,2.777778E-1,9.154E-1,1E0,1.8798806E-1,1.8E1,-8.297225E-2,3.93487E2,1E0,-4.9660128E-2,1E0,-5.4431105E-1,6.64E1,-4.711526E-1,2.530247E-1,-1.1662042E-1,-3.906263E-2,6.751E1,1E0,1E0,2.926969E-1,6.261887E-2,1.4254142E-1,1E0,5.389091E-2,3.366934E-1,3.1890526E-1,4.2497803E-2,1.6641378E-1,-3.487532E-1,-2.6353756E-1,-2.9270535E-2,-5.8059114E-1,-1.606272E-1,-4.355749E-1,-2.496253E-2,2.0454918E-1,-1.927132E-1,-4.358489E-1,-2.7697315E-2],"split_indices":[2,2,1446,5,1375,324,1237,1664,1173,1057,2,1980,2,689,0,1165,0,0,0,1951,1732,8,8,1,292,0,7,0,0,888,0,394,0,2,0,0,0,0,2,360,1162,0,0,0,1085,0,0,0,0,0,0,0,0,0,0,0,0,0,0,0,0],"split_type":[0,0,0,0,0,0,0,0,0,0,0,0,0,0,0,0,0,0,0,0,0,0,0,0,0,0,0,0,0,0,0,0,0,0,0,0,0,0,0,0,0,0,0,0,0,0,0,0,0,0,0,0,0,0,0,0,0,0,0,0,0],"sum_hessian":[2.6047043E2,1.6411514E2,9.6355286E1,5.1354588E1,1.1276055E2,8.468125E1,1.1674033E1,4.9020813E1,2.333774E0,1.04790405E2,7.9701414E0,3.0723812E1,5.3957436E1,1.0592794E1,1.0812387E0,4.783483E1,1.1859795E0,1.3175266E0,1.0162476E0,1.0102474E2,3.7656698E0,3.029047E0,4.941094E0,2.6125345E1,4.598468E0,2.496523E0,5.1460915E1,1.1383034E0,9.454492E0,4.6503353E1,1.3314805E0,9.9767296E1,1.257445E0,2.6566916E0,1.1089782E0,2.0228925E0,1.0061547E0,1.1720878E0,3.7690063E0,1.3600191E1,1.2525154E1,3.465509E0,1.1329587E0,1.5849314E0,4.9875984E1,1.1060897E0,8.348402E0,4.53953E1,1.1080493E0,9.6638176E1,3.1291187E0,1.1190286E0,1.5376631E0,2.6360157E0,1.1329907E0,1.0776681E1,2.8235111E0,5.1972647E0,7.3278894E0,4.758687E1,2.2891128E0],"tree_param":{"num_deleted":"0","num_feature":"2058","num_nodes":"61","size_leaf_vector":"1"}},{"base_weights":[1.7143713E-2,3.659575E-1,-6.015563E-1,9.0436584E-1,2.2598697E-1,-7.466825E-1,4.2158797E-1,9.5753103E-1,-1.021287E-1,-8.97972E-2,5.259451E-1,-2.5134802E-1,-1.0115706E0,-3.6648872E-1,7.9017967E-1,1.0161632E0,-4.8290774E-2,3.7426863E-2,-1.7369511E0,6.118896E-1,-1.1913446E0,-4.3883064E-1,7.429853E-1,-2.0459844E-1,-1.1272042E0,9.504283E-1,-8.543845E-2,1.0484E0,2.2200817E-2,-1.976433E-1,5.834539E-1,-3.9302662E-2,-7.402954E-1,6.9698507E-1,-6.8708825E-1,-5.123867E-1,-4.791527E-2,-2.2785226E-1,-1.3381063E0,2.6158947E-1,4.096671E-2,3.0224702E-1,-3.0124825E-1,-1.1818836E0,8.445133E-2,3.1302965E-1,6.826998E-2,3.2457367E-1,3.081612E-2,-3.4102577E-1,-1.965527E-3,2.1818729E-1,-2.6731572E-1,2.3300813E-1,-2.0134969E-1,-4.0675756E-1,6.9628194E-2,1.1519254E-1,-2.434934E-1,-4.78817E-1,-1.576172E-1,1.7704152E-1,-1.1725421E-1,-3.6716896E-1,6.570215E-2],"categories":[],"categories_nodes":[],"categories_segments":[],"categories_sizes":[],"default_left":[0,0,0,0,0,0,0,0,0,0,0,0,0,0,0,0,0,0,0,0,0,0,0,0,0,0,0,0,0,0,0,0,0,0,0,0,0,0,0,0,0,0,0,0,0,0,0,0,0,0,0,0,0,0,0,0,0,0,0,0,0,0,0,0,0],"id":3,"left_children":[1,3,5,7,9,11,13,15,-1,17,19,21,23,-1,25,27,-1,29,31,33,35,37,39,41,43,45,-1,47,-1,49,51,-1,-1,53,55,-1,-1,57,59,-1,-1,61,-1,63,-1,-1,-1,-1,-1,-1,-1,-1,-1,-1,-1,-1,-1,-1,-1,-1,-1,-1,-1,-1,-1],"loss_changes":[5.1608696E1,1.1317781E1,1.3118071E1,2.3916588E0,1.1667625E1,9.701252E0,7.8399754E0,2.1438923E0,0E0,1.2767774E1,1.0036375E1,5.502624E0,4.3517303E0,0E0,1.9723067E0,7.980385E-1,0E0,7.4635797E0,4.801669E0,7.1903667E0,1.5098944E0,4.2470307E0,2.545297E-1,3.2928896E0,3.6241379E0,3.5598803E-1,0E0,7.6989174E-1,0E0,7.308506E0,4.3558393E0,0E0,0E0,6.7897243E0,2.9189973E0,0E0,0E0,7.6831293E0,7.419491E-2,0E0,0E0,1.2848674E0,0E0,2.7003288E0,0E0,0E0,0E0,0E0,0E0,0E0,0E0,0E0,0E0,0E0,0E0,0E0,0E0,0E0,0E0,0E0,0E0,0E0,0E0,0E0,0E0],"parents":[2147483647,0,0,1,1,2,2,3,3,4,4,5,5,6,6,7,7,9,9,10,10,11,11,12,12,14,14,15,15,17,17,18,18,19,19,20,20,21,21,22,22,23,23,24,24,25,25,27,27,29,29,30,30,33,33,34,34,37,37,38,38,41,41,43,43],"right_children":[2,4,6,8,10,12,14,16,-1,18,20,22,24,-1,26,28,-1,30,32,34,36,38,40,42,44,46,-1,48,-1,50,52,-1,-1,54,56,-1,-1,58,60,-1,-1,62,-1,64,-1,-1,-1,-1,-1,-1,-1,-1,-1,-1,-1,-1,-1,-1,-1,-1,-1,-1,-1,-1,-1],"split_conditions":[8.671E1,2.693E1,1E0,8E0,1E0,1E0,3.76449E2,1E0,-1.021287E-1,1E0,3.5E1,1E0,1E0,-3.6648872E-1,4E0,1E0,-4.8290774E-2,1E0,3.0804E0,1E0,1E1,1E0,1E0,1E0,1E0,1E0,-8.543845E-2,3E0,2.2200817E-2,6.008E-1,1E0,-3.9302662E-2,-7.402954E-1,1E0,1.3819E0,-5.123867E-1,-4.791527E-2,4E0,3E0,2.6158947E-1,4.096671E-2,1E0,-3.0124825E-1,1E0,8.445133E-2,3.1302965E-1,6.826998E-2,3.2457367E-1,3.081612E-2,-3.4102577E-1,-1.965527E-3,2.1818729E-1,-2.6731572E-1,2.3300813E-1,-2.0134969E-1,-4.0675756E-1,6.9628194E-2,1.1519254E-1,-2.434934E-1,-4.78817E-1,-1.576172E-1,1.7704152E-1,-1.1725421E-1,-3.6716896E-1,6.570215E-2],"split_indices":[2,2,1446,5,945,324,0,748,0,1037,7,1980,1067,0,3,1583,0,304,1,394,5,1124,1467,243,1317,1619,0,9,0,1,360,0,0,466,1,0,0,3,6,0,0,666,0,600,0,0,0,0,0,0,0,0,0,0,0,0,0,0,0,0,0,0,0,0,0],"split_type":[0,0,0,0,0,0,0,0,0,0,0,0,0,0,0,0,0,0,0,0,0,0,0,0,0,0,0,0,0,0,0,0,0,0,0,0,0,0,0,0,0,0,0,0,0,0,0,0,0,0,0,0,0,0,0,0,0,0,0,0,0,0,0,0,0],"sum_hessian":[2.3711821E2,1.5189218E2,8.522603E1,3.0213255E1,1.21678925E2,7.4875626E1,1.0350405E1,2.9197021E1,1.0162333E0,5.9617058E1,6.206187E1,2.6768335E1,4.810729E1,1.4723248E0,8.878079E0,2.7829676E1,1.3673468E0,5.6249683E1,3.3673756E0,5.971693E1,2.3449402E0,2.2991863E1,3.776472E0,6.3765607E0,4.173073E1,7.8271327E0,1.0509472E0,2.6799932E1,1.029743E0,3.9767433E1,1.6482248E1,1.4218055E0,1.9455701E0,5.6480362E1,3.2365687E0,1.1256505E0,1.2192897E0,1.9637983E1,3.3538797E0,2.7530653E0,1.0234067E0,4.283328E0,2.0932326E0,4.032646E1,1.4042647E0,6.541965E0,1.2851675E0,2.5743597E1,1.0563362E0,5.8870597E0,3.3880375E1,1.5479036E1,1.0032127E0,5.3779465E1,2.700895E0,1.5984863E0,1.6380824E0,9.755879E0,9.882104E0,1.814207E0,1.5396729E0,3.131245E0,1.152083E0,3.9274944E1,1.0515175E0],"tree_param":{"num_deleted":"0","num_feature":"2058","num_nodes":"65","size_leaf_vector":"1"}},{"base_weights":[1.0676688E-2,3.6529848E-1,-3.8123524E-1,4.1519952E-1,-3.6477292E-1,-1.9899859E-1,-7.984801E-1,4.5267272E-1,-5.298221E-1,-4.3200743E-1,3.4740472E-1,-8.674228E-1,9.582769E-2,5.087438E-1,-8.5595214E-1,5.9694108E-2,-7.256714E-1,4.93539E-1,-2.6120046E-1,-9.455087E-1,5.6503E-2,7.100594E-1,1.4432384E-1,-5.223351E-1,1.07471496E-1,-8.0945617E-1,4.1058984E-1,-8.08757E-1,2.0977372E-1,6.0759085E-1,-2.325149E-1,-1.059401E0,-1.1335323E-1,2.2593594E-1,-2.4753386E-1,1.10236526E-1,-2.731434E-1,-1.5577498E-1,1.964936E-1,-4.3119162E-1,2.2831951E-1,1.7866054E-1,-2.4861756E-1,-2.9714528E-1,3.226952E-2,2.1478122E-1,-1.2213104E-1,-3.454027E-1,-5.651306E-2,1.4718741E-1,-1.2975083E-1],"categories":[],"categories_nodes":[],"categories_segments":[],"categories_sizes":[],"default_left":[0,0,0,0,0,0,0,0,0,0,0,0,0,0,0,0,0,0,0,0,0,0,0,0,0,0,0,0,0,0,0,0,0,0,0,0,0,0,0,0,0,0,0,0,0,0,0,0,0,0,0],"id":4,"left_children":[1,3,5,7,-1,9,11,13,-1,15,17,19,-1,21,23,25,27,29,-1,31,-1,33,35,-1,37,39,41,43,-1,45,-1,47,49,-1,-1,-1,-1,-1,-1,-1,-1,-1,-1,-1,-1,-1,-1,-1,-1,-1,-1],"loss_changes":[3.0297216E1,9.533609E0,7.716049E0,9.927444E0,0E0,9.497104E0,2.6779594E0,8.549528E0,0E0,7.539342E0,4.435145E0,2.6192207E0,0E0,7.7228794E0,4.379649E0,6.534274E0,4.4224167E0,3.470221E0,0E0,2.5088005E0,0E0,5.146549E0,9.563423E0,0E0,1.4710442E0,7.1927814E0,3.9660532E0,5.3097515E0,0E0,2.444118E0,0E0,1.7274246E0,1.071731E0,0E0,0E0,0E0,0E0,0E0,0E0,0E0,0E0,0E0,0E0,0E0,0E0,0E0,0E0,0E0,0E0,0E0,0E0],"parents":[2147483647,0,0,1,1,2,2,3,3,5,5,6,6,7,7,9,9,10,10,11,11,13,13,14,14,15,15,16,16,17,17,19,19,21,21,22,22,24,24,25,25,26,26,27,27,29,29,31,31,32,32],"right_children":[2,4,6,8,-1,10,12,14,-1,16,18,20,-1,22,24,26,28,30,-1,32,-1,34,36,-1,38,40,42,44,-1,46,-1,48,50,-1,-1,-1,-1,-1,-1,-1,-1,-1,-1,-1,-1,-1,-1,-1,-1,-1,-1],"split_conditions":[2E0,1E0,4E0,1E0,-3.6477292E-1,5.652174E-1,1E0,1E0,-5.298221E-1,2.8782E2,1E0,1E0,9.582769E-2,1E0,3.10466E2,1.86214E2,1E0,1E0,-2.6120046E-1,1E0,5.6503E-2,1E0,1E0,-5.223351E-1,1E0,1E0,1E0,1.4772E2,2.0977372E-1,1E0,-2.325149E-1,1E0,1.272E2,2.2593594E-1,-2.4753386E-1,1.10236526E-1,-2.731434E-1,-1.5577498E-1,1.964936E-1,-4.3119162E-1,2.2831951E-1,1.7866054E-1,-2.4861756E-1,-2.9714528E-1,3.226952E-2,2.1478122E-1,-1.2213104E-1,-3.454027E-1,-5.651306E-2,1.4718741E-1,-1.2975083E-1],"split_indices":[3,1310,3,1747,0,8,963,539,0,0,1237,1801,0,705,0,0,1772,15,0,1854,0,1178,293,0,632,1927,1170,2,0,704,0,1462,2,0,0,0,0,0,0,0,0,0,0,0,0,0,0,0,0,0,0],"split_type":[0,0,0,0,0,0,0,0,0,0,0,0,0,0,0,0,0,0,0,0,0,0,0,0,0,0,0,0,0,0,0,0,0,0,0,0,0,0,0,0,0,0,0,0,0,0,0,0,0,0,0],"sum_hessian":[2.1599413E2,1.1342728E2,1.0256685E2,1.1067202E2,2.75526E0,7.241547E1,3.015138E1,1.0958193E2,1.0900905E0,5.0913303E1,2.1502165E1,2.8610968E1,1.5404116E0,1.0566567E2,3.916258E0,1.9335423E1,3.157788E1,1.9729948E1,1.7722163E0,2.6737835E1,1.8731326E0,6.745385E1,3.821182E1,1.6203296E0,2.2959285E0,5.1851788E0,1.4150244E1,3.0246647E1,1.3312353E0,1.8580526E1,1.1494229E0,2.3278727E1,3.459108E0,6.610897E1,1.3448789E0,3.207777E1,6.1340485E0,1.0945864E0,1.2013422E0,3.7649019E0,1.4202769E0,1.2764794E1,1.3854495E0,2.5173285E1,5.0733624E0,1.7053974E1,1.526551E0,2.0765043E1,2.513685E0,1.0101504E0,2.4489577E0],"tree_param":{"num_deleted":"0","num_feature":"2058","num_nodes":"51","size_leaf_vector":"1"}},{"base_weights":[3.8602992E-3,2.2327636E-1,-3.953906E-1,2.9351288E-1,-7.3667914E-1,-4.6292236E-1,2.3648745E-1,3.456425E-1,-8.45945E-1,1.1427585E-1,-1.1733366E0,5.414633E-1,-5.469167E-1,3.9715546E-1,-7.668986E-1,-3.5223737E-2,-3.389951E-1,-1.6915001E-1,2.0436142E-1,-1.4570006E0,-1.6781207E-2,2.7138206E-1,-1.6133996E-2,-4.696679E-1,-4.6151522E-1,-1.6563982E-1,5.1032436E-1,-4.1771066E-1,1.9165845E-1,-5.733929E-1,-6.3640034E-1,-7.7082016E-2,6.694782E-2,-5.21456E-1,5.328087E-1,2.7124144E-2,-3.686779E-1,1.8564405E-1,-4.9295384E-2,7.027418E-2,-3.7876266E-1,-1.6790284E-1,2.4346595E-1,2.676579E-1,-4.505962E-2],"categories":[],"categories_nodes":[],"categories_segments":[],"categories_sizes":[],"default_left":[0,0,0,0,0,0,0,0,0,0,0,0,0,0,0,0,0,0,0,0,0,0,0,0,0,0,0,0,0,0,0,0,0,0,0,0,0,0,0,0,0,0,0,0,0],"id":5,"left_children":[1,3,5,7,9,11,-1,13,15,17,19,21,23,25,27,-1,-1,-1,-1,29,-1,-1,31,33,-1,35,37,-1,-1,-1,39,-1,-1,41,43,-1,-1,-1,-1,-1,-1,-1,-1,-1,-1],"loss_changes":[1.7632597E1,8.973471E0,6.0715265E0,7.523883E0,3.5303278E0,6.0468473E0,0E0,7.0171614E0,1.0294719E0,1.9260197E0,1.8612633E0,1.1815665E0,4.1335087E0,7.256298E0,5.746934E0,0E0,0E0,0E0,0E0,5.911455E-1,0E0,0E0,2.4493071E-1,3.4063072E0,0E0,5.4492087E0,6.9813786E0,0E0,0E0,0E0,2.054873E0,0E0,0E0,3.3992548E0,9.82011E-1,0E0,0E0,0E0,0E0,0E0,0E0,0E0,0E0,0E0,0E0],"parents":[2147483647,0,0,1,1,2,2,3,3,4,4,5,5,7,7,8,8,9,9,10,10,11,11,12,12,13,13,14,14,19,19,22,22,23,23,25,25,26,26,30,30,33,33,34,34],"right_children":[2,4,6,8,10,12,-1,14,16,18,20,22,24,26,28,-1,-1,-1,-1,30,-1,-1,32,34,-1,36,38,-1,-1,-1,40,-1,-1,42,44,-1,-1,-1,-1,-1,-1,-1,-1,-1,-1],"split_conditions":[8.851E1,1E0,1E0,1E0,4.19E1,2.35286E2,2.3648745E-1,1E0,3E0,1E0,1E0,4E0,1E0,9.468E-1,1E0,-3.5223737E-2,-3.389951E-1,-1.6915001E-1,2.0436142E-1,4E0,-1.6781207E-2,2.7138206E-1,1.0464E2,1E0,-4.6151522E-1,1E0,1E0,-4.1771066E-1,1.9165845E-1,-5.733929E-1,8E0,-7.7082016E-2,6.694782E-2,1E0,4.16558E2,2.7124144E-2,-3.686779E-1,1.8564405E-1,-4.9295384E-2,7.027418E-2,-3.7876266E-1,-1.6790284E-1,2.4346595E-1,2.676579E-1,-4.505962E-2],"split_indices":[2,1080,649,466,2,0,0,1323,5,936,1124,3,1826,1,945,0,0,0,0,4,0,0,2,1706,0,232,1462,0,0,0,5,0,0,305,0,0,0,0,0,0,0,0,0,0,0],"split_type":[0,0,0,0,0,0,0,0,0,0,0,0,0,0,0,0,0,0,0,0,0,0,0,0,0,0,0,0,0,0,0,0,0,0,0,0,0,0,0,0,0,0,0,0,0],"sum_hessian":[1.992729E2,1.2888333E2,7.038957E1,1.20743225E2,8.140108E0,6.716648E1,3.2230895E0,1.1612712E2,4.616097E0,3.0108602E0,5.129248E0,4.763168E0,6.2403313E1,1.1160271E2,4.524415E0,1.6913387E0,2.9247584E0,1.3734834E0,1.6373768E0,3.848375E0,1.2808732E0,2.5076764E0,2.2554917E0,5.925987E1,3.1434429E0,1.8606731E1,9.299598E1,3.1378193E0,1.386596E0,1.6215019E0,2.226873E0,1.0874363E0,1.1680553E0,5.680514E1,2.4547281E0,1.57329855E1,2.873746E0,8.01843E1,1.2811675E1,1.1933762E0,1.0334969E0,5.5785786E1,1.0193543E0,1.4077357E0,1.0469923E0],"tree_param":{"num_deleted":"0","num_feature":"2058","num_nodes":"45","size_leaf_vector":"1"}},{"base_weights":[2.8804424E-3,7.3007977E-1,-7.963602E-2,8.151386E-1,-1.0387034E-1,-1.2508157E-1,3.1721422E-1,8.999711E-1,-9.630287E-2,-2.0434758E-1,4.6504208E-1,2.98365E-1,2.0667844E-1,-8.854225E-2,-6.827827E-1,-1.734751E-1,8.2320195E-1,-5.1121045E-2,1.6214484E-1,7.9920757E-1,-2.0246413E-1,-1.6691476E0,-4.314218E-1,-5.3019536E-1,1.9369389E-1,1.4347872E-1,9.442001E-1,2.8968722E-1,-3.6593627E-2,2.007555E-2,-1.5112941E-1,-1.3465098E-1,-5.8159995E-1,-2.0219872E-2,-3.6074772E-1,-2.4203318E-1,8.21042E-2,-6.3048474E-2,1.2399219E-1,3.0615926E-1,3.0342665E-2],"categories":[],"categories_nodes":[],"categories_segments":[],"categories_sizes":[],"default_left":[0,0,0,0,0,0,0,0,0,0,0,0,0,0,0,0,0,0,0,0,0,0,0,0,0,0,0,0,0,0,0,0,0,0,0,0,0,0,0,0,0],"id":6,"left_children":[1,3,5,7,-1,9,-1,11,-1,13,15,-1,17,19,21,23,25,-1,-1,27,29,31,33,35,-1,37,39,-1,-1,-1,-1,-1,-1,-1,-1,-1,-1,-1,-1,-1,-1],"loss_changes":[1.1398582E1,2.0544367E0,8.949157E0,2.0467377E0,0E0,7.811664E0,0E0,9.24489E-1,0E0,8.03578E0,4.6800237E0,0E0,5.1139635E-1,1.2176456E1,6.3034153E0,2.6668954E0,9.2421055E-1,0E0,0E0,2.2200499E0,8.6441765E0,9.0735054E-1,6.6340523E0,1.57508E0,0E0,3.851677E-1,5.890875E-1,0E0,0E0,0E0,0E0,0E0,0E0,0E0,0E0,0E0,0E0,0E0,0E0,0E0,0E0],"parents":[2147483647,0,0,1,1,2,2,3,3,5,5,7,7,9,9,10,10,12,12,13,13,14,14,15,15,16,16,19,19,20,20,21,21,22,22,23,23,25,25,26,26],"right_children":[2,4,6,8,-1,10,-1,12,-1,14,16,-1,18,20,22,24,26,-1,-1,28,30,32,34,36,-1,38,40,-1,-1,-1,-1,-1,-1,-1,-1,-1,-1,-1,-1,-1,-1],"split_conditions":[2.693E1,1E0,1E0,8E0,-1.0387034E-1,1E0,3.1721422E-1,1E0,-9.630287E-2,3.4701E0,2.2874E0,2.98365E-1,4.0625E-1,1E0,3.08768E2,1E0,1E0,-5.1121045E-2,1.6214484E-1,1E0,3.24406E2,1E0,5.088E0,1E0,1.9369389E-1,6.64E1,5.1705E0,2.8968722E-1,-3.6593627E-2,2.007555E-2,-1.5112941E-1,-1.3465098E-1,-5.8159995E-1,-2.0219872E-2,-3.6074772E-1,-2.4203318E-1,8.21042E-2,-6.3048474E-2,1.2399219E-1,3.0615926E-1,3.0342665E-2],"split_indices":[2,2027,598,5,0,1938,0,749,0,1,1,0,8,3,0,1760,90,0,0,157,0,660,1,94,0,2,1,0,0,0,0,0,0,0,0,0,0,0,0,0,0],"split_type":[0,0,0,0,0,0,0,0,0,0,0,0,0,0,0,0,0,0,0,0,0,0,0,0,0,0,0,0,0,0,0,0,0,0,0,0,0,0,0,0,0],"sum_hessian":[1.8798872E2,1.8357801E1,1.6963092E2,1.7238163E1,1.1196381E0,1.6396729E2,5.6636343E0,1.6233904E1,1.0042591E0,1.4512735E2,1.8839935E1,1.3902761E1,2.3311431E0,1.1779912E2,2.7328236E1,6.9555063E0,1.188443E1,1.3244685E0,1.0066745E0,1.2713357E1,1.0508576E2,4.40442E0,2.2923815E1,5.091102E0,1.8644041E0,2.1261716E0,9.758258E0,1.0727201E1,1.9861556E0,5.5892273E1,4.9193485E1,1.2789576E0,3.1254625E0,1.631087E1,6.612946E0,3.785167E0,1.3059351E0,1.0158788E0,1.1102927E0,8.755062E0,1.0031962E0],"tree_param":{"num_deleted":"0","num_feature":"2058","num_nodes":"41","size_leaf_vector":"1"}},{"base_weights":[1.0454465E-2,7.8079976E-2,-6.077213E-1,6.571156E-1,1.4153371E-2,-7.871144E-1,2.9076302E-1,8.3779633E-1,6.1242543E-3,7.640209E-2,-6.527256E-1,-9.426257E-1,4.702247E-3,2.6251397E-1,-1.2393693E-1,2.878665E-1,-1.4966988E-2,-1.7629549E-1,1.9648099E-1,1.3317683E-1,-6.2400985E-1,-7.8704923E-1,9.964258E-2,-1.1145629E0,-1.725733E-1,1.6037333E-1,-1.3775359E-1,3.351728E-2,7.08166E-1,1.9130808E-1,-8.65219E-1,-1.4081828E-1,-1.023999E0,-3.5836545E-1,-6.129193E-2,9.772558E-2,-1.9878979E-1,-8.891965E-3,2.2137572E-1,2.6023445E-1,-1.4196262E-1,-1.12267956E-1,-4.9001315E-1,2.0582403E-1,-2.2495152E-1,-4.5253402E-1,-7.010176E-2],"categories":[],"categories_nodes":[],"categories_segments":[],"categories_sizes":[],"default_left":[0,0,0,0,0,0,0,0,0,0,0,0,0,0,0,0,0,0,0,0,0,0,0,0,0,0,0,0,0,0,0,0,0,0,0,0,0,0,0,0,0,0,0,0,0,0,0],"id":7,"left_children":[1,3,5,7,9,11,13,15,17,19,21,23,25,-1,-1,-1,-1,-1,-1,27,29,31,-1,33,35,-1,-1,37,39,-1,41,43,45,-1,-1,-1,-1,-1,-1,-1,-1,-1,-1,-1,-1,-1,-1],"loss_changes":[7.558891E0,6.018668E0,3.1030235E0,1.8967209E0,6.1803894E0,1.8679495E0,1.882383E0,1.4150314E0,2.1262505E0,5.489911E0,1.9432011E0,1.4831085E0,1.1006907E0,0E0,0E0,0E0,0E0,0E0,0E0,7.230601E0,3.707941E0,1.6142502E0,0E0,4.9580193E-1,1.0688639E0,0E0,0E0,4.8686023E0,3.9201021E0,0E0,2.8324666E0,2.6499298E0,2.8036652E0,0E0,0E0,0E0,0E0,0E0,0E0,0E0,0E0,0E0,0E0,0E0,0E0,0E0,0E0],"parents":[2147483647,0,0,1,1,2,2,3,3,4,4,5,5,6,6,7,7,8,8,9,9,10,10,11,11,12,12,19,19,20,20,21,21,23,23,24,24,27,27,28,28,30,30,31,31,32,32],"right_children":[2,4,6,8,10,12,14,16,18,20,22,24,26,-1,-1,-1,-1,-1,-1,28,30,32,-1,34,36,-1,-1,38,40,-1,42,44,46,-1,-1,-1,-1,-1,-1,-1,-1,-1,-1,-1,-1,-1,-1],"split_conditions":[1E0,2.693E1,1E0,4.564E0,1E0,1E0,4.0625E-1,1E0,1E0,1E0,1E0,1E0,3.846154E-1,2.6251397E-1,-1.2393693E-1,2.878665E-1,-1.4966988E-2,-1.7629549E-1,1.9648099E-1,1E0,1E0,2.962963E-1,9.964258E-2,1E0,4.37515E2,1.6037333E-1,-1.3775359E-1,1E0,1E0,1.9130808E-1,1E0,6.246E1,6.751E1,-3.5836545E-1,-6.129193E-2,9.772558E-2,-1.9878979E-1,-8.891965E-3,2.2137572E-1,2.6023445E-1,-1.4196262E-1,-1.12267956E-1,-4.9001315E-1,2.0582403E-1,-2.2495152E-1,-4.5253402E-1,-7.010176E-2],"split_indices":[15,2,1155,1,1375,725,8,1462,885,320,1124,666,8,0,0,0,0,0,0,1801,1764,8,0,728,0,0,0,1574,1318,0,388,2,2,0,0,0,0,0,0,0,0,0,0,0,0,0,0],"split_type":[0,0,0,0,0,0,0,0,0,0,0,0,0,0,0,0,0,0,0,0,0,0,0,0,0,0,0,0,0,0,0,0,0,0,0,0,0,0,0,0,0,0,0,0,0,0,0],"sum_hessian":[1.7868039E2,1.6184862E2,1.6831781E1,1.5169233E1,1.4667938E2,1.4133761E1,2.6980202E0,1.1649103E1,3.5201297E0,1.3496658E2,1.17128E1,1.16544E1,2.479362E0,1.3413904E0,1.3566297E0,1.0172799E1,1.4763043E0,1.8872417E0,1.632888E0,1.25595764E2,9.370816E0,1.0483799E1,1.2290016E0,9.161447E0,2.4929523E0,1.0862136E0,1.3931483E0,1.0794463E2,1.7651129E1,1.2401536E0,8.130663E0,3.2404487E0,7.24335E0,8.134321E0,1.0271254E0,1.4022901E0,1.0906622E0,9.994171E1,8.002923E0,1.5788174E1,1.862955E0,5.8674626E0,2.2632003E0,1.3207146E0,1.9197342E0,3.9273553E0,3.3159945E0],"tree_param":{"num_deleted":"0","num_feature":"2058","num_nodes":"47","size_leaf_vector":"1"}},{"base_weights":[8.330405E-3,8.294444E-2,-4.50973E-1,1.0372913E-1,-4.080481E-1,3.2574315E-2,-6.240189E-1,8.1878704E-1,5.560533E-2,-4.670143E-1,4.3188632E-1,-7.175003E-1,1.12851694E-1,2.8548214E-1,2.8742504E-1,1.4012408E-2,8.5207397E-1,-2.3911197E-1,5.7194278E-2,-5.0043624E-2,6.5505123E-1,-8.5040975E-1,5.1653437E-2,2.0062222E-1,-7.3457815E-2,-1.9616779E-2,2.740395E-1,1.2240209E-2,2.9614654E-1,2.6869643E-1,3.9962836E-2,-1.0166717E0,6.521953E-2,-1.9020557E-1,2.1961987E-1,1.0113414E-1,-3.1087365E-2,-3.4750682E-1,-8.6648084E-2,2.3610844E-1,-1.9858098E-1],"categories":[],"categories_nodes":[],"categories_segments":[],"categories_sizes":[],"default_left":[0,0,0,0,0,0,0,0,0,0,0,0,0,0,0,0,0,0,0,0,0,0,0,0,0,0,0,0,0,0,0,0,0,0,0,0,0,0,0,0,0],"id":8,"left_children":[1,3,5,7,-1,9,11,13,15,17,19,21,-1,23,-1,25,27,-1,-1,-1,29,31,33,-1,-1,35,-1,-1,-1,-1,-1,37,39,-1,-1,-1,-1,-1,-1,-1,-1],"loss_changes":[5.9331584E0,4.6054325E0,2.0450382E0,5.0354633E0,0E0,1.6634835E0,1.940691E0,4.127345E-1,4.6065893E0,9.627316E-1,7.228044E-1,1.7497072E0,0E0,8.421405E-1,0E0,4.0564446E0,7.16156E-1,0E0,0E0,0E0,3.261789E-1,2.2409458E0,2.0509646E0,0E0,0E0,3.9212434E0,0E0,0E0,0E0,0E0,0E0,9.183817E-1,2.166405E0,0E0,0E0,0E0,0E0,0E0,0E0,0E0,0E0],"parents":[2147483647,0,0,1,1,2,2,3,3,5,5,6,6,7,7,8,8,9,9,10,10,11,11,13,13,15,15,16,16,20,20,21,21,22,22,25,25,31,31,32,32],"right_children":[2,4,6,8,-1,10,12,14,16,18,20,22,-1,24,-1,26,28,-1,-1,-1,30,32,34,-1,-1,36,-1,-1,-1,-1,-1,38,40,-1,-1,-1,-1,-1,-1,-1,-1],"split_conditions":[4E0,1E0,1E0,1E0,-4.080481E-1,-1.6512E0,1E0,3.5642E-1,1E0,3E0,1.0464E2,1E0,1.12851694E-1,8.604651E-1,2.8742504E-1,1E0,1.203E1,-2.3911197E-1,5.7194278E-2,-5.0043624E-2,3E0,1E0,1.299E-1,2.0062222E-1,-7.3457815E-2,1E0,2.740395E-1,1.2240209E-2,2.9614654E-1,2.6869643E-1,3.9962836E-2,1E0,3.99564E2,-1.9020557E-1,2.1961987E-1,1.0113414E-1,-3.1087365E-2,-3.4750682E-1,-8.6648084E-2,2.3610844E-1,-1.9858098E-1],"split_indices":[3,424,1067,1390,0,1,1692,1,598,6,2,529,0,8,0,1304,2,0,0,0,6,1462,1,0,0,3,0,0,0,0,0,397,0,0,0,0,0,0,0,0,0],"split_type":[0,0,0,0,0,0,0,0,0,0,0,0,0,0,0,0,0,0,0,0,0,0,0,0,0,0,0,0,0,0,0,0,0,0,0,0,0,0,0,0,0],"sum_hessian":[1.710359E2,1.4783884E2,2.3197071E1,1.4665472E2,1.1841118E0,6.3275547E0,1.6869516E1,8.237775E0,1.3841695E2,2.735526E0,3.5920284E0,1.5686076E1,1.1834396E0,2.3375971E0,5.900178E0,1.3251442E2,5.9025307E0,1.6803629E0,1.0551631E0,1.0439297E0,2.5480988E0,1.32848215E1,2.4012547E0,1.2054789E0,1.1321182E0,1.2868141E2,3.833015E0,1.0283699E0,4.874161E0,1.2537179E0,1.2943808E0,1.1149855E1,2.1349669E0,1.2299666E0,1.1712881E0,2.3953285E1,1.0472812E2,8.837945E0,2.3119094E0,1.0301026E0,1.1048642E0],"tree_param":{"num_deleted":"0","num_feature":"2058","num_nodes":"41","size_leaf_vector":"1"}},{"base_weights":[1.0508926E-2,6.244486E-2,-4.9947193E-1,9.379354E-2,-8.28173E-1,-6.643818E-1,2.7960646E-1,1.2255083E-1,-9.0926164E-1,-3.4685004E-1,5.0977744E-2,-8.6914337E-1,-1.5677463E-2,2.2860363E-1,-1.022616E-1,8.26597E-2,8.9620554E-1,6.339955E-2,-4.1291425E-1,-1.0023471E0,4.299196E-2,1.6377075E-1,-1.9857794E-1,5.8714487E-3,5.9156054E-1,3.0528274E-1,2.603871E-2,-8.150136E-2,-3.4915385E-1,1.1042478E-2,-3.8006565E-1,2.0812635E-1,-1.6987923E-1],"categories":[],"categories_nodes":[],"categories_segments":[],"categories_sizes":[],"default_left":[0,0,0,0,0,0,0,0,0,0,0,0,0,0,0,0,0,0,0,0,0,0,0,0,0,0,0,0,0,0,0,0,0],"id":9,"left_children":[1,3,5,7,9,11,13,15,17,-1,-1,19,21,-1,-1,23,25,-1,-1,27,-1,-1,-1,29,31,-1,-1,-1,-1,-1,-1,-1,-1],"loss_changes":[4.4412203E0,4.321522E0,2.1772115E0,4.372774E0,1.9217336E0,1.7249408E0,1.280925E0,4.385338E0,2.5082905E0,0E0,0E0,1.4828386E0,1.8705801E0,0E0,0E0,5.4092455E0,5.9791565E-1,0E0,0E0,7.3412323E-1,0E0,0E0,0E0,4.8252687E0,2.540399E0,0E0,0E0,0E0,0E0,0E0,0E0,0E0,0E0],"parents":[2147483647,0,0,1,1,2,2,3,3,4,4,5,5,6,6,7,7,8,8,11,11,12,12,15,15,16,16,19,19,23,23,24,24],"right_children":[2,4,6,8,10,12,14,16,18,-1,-1,20,22,-1,-1,24,26,-1,-1,28,-1,-1,-1,30,32,-1,-1,-1,-1,-1,-1,-1,-1],"split_conditions":[1E0,1E0,1E0,1E0,2.6743E0,1.7368E2,4.0625E-1,1E0,1E0,-3.4685004E-1,5.0977744E-2,1E0,4E0,2.2860363E-1,-1.022616E-1,1E0,4.3319E0,6.339955E-2,-4.1291425E-1,1E0,4.299196E-2,1.6377075E-1,-1.9857794E-1,1E0,1E0,3.0528274E-1,2.603871E-2,-8.150136E-2,-3.4915385E-1,1.1042478E-2,-3.8006565E-1,2.0812635E-1,-1.6987923E-1],"split_indices":[15,394,1155,1106,1,2,8,734,3,0,0,571,3,0,0,1801,1,0,0,399,0,0,0,284,112,0,0,0,0,0,0,0,0],"split_type":[0,0,0,0,0,0,0,0,0,0,0,0,0,0,0,0,0,0,0,0,0,0,0,0,0,0,0,0,0,0,0,0,0],"sum_hessian":[1.6550215E2,1.5100183E2,1.45003195E1,1.4673174E2,4.2700944E0,1.2088691E1,2.4116287E0,1.4349559E2,3.2361526E0,3.0947373E0,1.1753571E0,8.930114E0,3.1585772E0,1.228443E0,1.1831858E0,1.3751204E2,5.983544E0,1.1132091E0,2.1229436E0,7.900638E0,1.0294752E0,1.7730771E0,1.3855002E0,1.203621E2,1.7149946E1,4.9794507E0,1.0040929E0,1.9156735E0,5.984965E0,1.18453926E2,1.9081713E0,1.6127302E1,1.0226444E0],"tree_param":{"num_deleted":"0","num_feature":"2058","num_nodes":"33","size_leaf_vector":"1"}},{"base_weights":[3.0196356E-3,4.110727E-1,-5.569198E-2,6.4857775E-1,-2.3455517E-1,-8.0788635E-2,2.7513167E-1,7.8741616E-1,-1.4633246E-1,-5.9513515E-1,1.9453017E-1,-1.2035911E-1,5.444568E-1,9.021322E-1,-9.672996E-2,-3.360204E-1,4.7533337E-2,-8.896261E-2,-3.8717014E-1,-1.0947531E-1,8.1991583E-1,2.8933093E-1,4.940406E-2,2.3743229E-3,-4.1614953E-1,1.1539076E-1,-1.7660244E-1,5.135738E-2,2.7514476E-1,2.183242E-1,-2.0834822E-2,-3.431021E-1,-5.0734285E-2],"categories":[],"categories_nodes":[],"categories_segments":[],"categories_sizes":[],"default_left":[0,0,0,0,0,0,0,0,0,0,0,0,0,0,0,0,0,0,0,0,0,0,0,0,0,0,0,0,0,0,0,0,0],"id":10,"left_children":[1,3,5,7,9,11,-1,13,-1,15,-1,17,19,21,-1,-1,-1,23,-1,25,27,-1,-1,29,31,-1,-1,-1,-1,-1,-1,-1,-1],"loss_changes":[3.896816E0,3.2892504E0,3.546769E0,2.785677E0,2.3715143E0,3.5189931E0,0E0,2.0666218E0,0E0,2.135416E0,0E0,4.7383785E0,1.6189265E0,4.340725E-1,0E0,0E0,0E0,3.877471E0,0E0,1.0310631E0,2.2719097E-1,0E0,0E0,5.385587E0,4.8953853E0,0E0,0E0,0E0,0E0,0E0,0E0,0E0,0E0],"parents":[2147483647,0,0,1,1,2,2,3,3,4,4,5,5,7,7,9,9,11,11,12,12,13,13,17,17,19,19,20,20,23,23,24,24],"right_children":[2,4,6,8,10,12,-1,14,-1,16,-1,18,20,22,-1,-1,-1,24,-1,26,28,-1,-1,30,32,-1,-1,-1,-1,-1,-1,-1,-1],"split_conditions":[3.278E1,4.564E0,1E0,1E0,1E0,1E0,2.7513167E-1,1E0,-1.4633246E-1,1E0,1.9453017E-1,1E0,1.906E0,1E0,-9.672996E-2,-3.360204E-1,4.7533337E-2,3.3532E0,-3.8717014E-1,1E0,1E0,2.8933093E-1,4.940406E-2,1E0,3.19386E2,1.1539076E-1,-1.7660244E-1,5.135738E-2,2.7514476E-1,2.183242E-1,-2.0834822E-2,-3.431021E-1,-5.0734285E-2],"split_indices":[2,1,1925,332,1961,977,0,1591,0,885,0,1689,1,1076,0,0,0,1,0,192,1446,0,0,3,0,0,0,0,0,0,0,0,0],"split_type":[0,0,0,0,0,0,0,0,0,0,0,0,0,0,0,0,0,0,0,0,0,0,0,0,0,0,0,0,0,0,0,0,0],"sum_hessian":[1.6070007E2,1.9458628E1,1.4124144E2,1.4222188E1,5.2364397E0,1.3858318E2,2.6582768E0,1.294736E1,1.2748283E0,3.9495776E0,1.2868619E0,1.3109401E2,7.489163E0,1.1904089E1,1.0432706E0,2.0413043E0,1.9082732E0,1.2871658E2,2.3774233E0,2.398281E0,5.090882E0,1.0692897E1,1.2111923E0,1.0140209E2,2.731449E1,1.2779256E0,1.1203556E0,1.0234199E0,4.067462E0,8.313071E0,9.308902E1,6.0037413E0,2.1310747E1],"tree_param":{"num_deleted":"0","num_feature":"2058","num_nodes":"33","size_leaf_vector":"1"}},{"base_weights":[7.5804857E-3,2.6578097E-2,-3.453806E-1,8.5060686E-2,-3.568152E-1,1.0503609E-1,-3.5457593E-1,3.8815547E-2,-5.184959E-1,1.260018E-1,-3.3286193E-1,-1.9958311E-1,1.9261687E-1,-6.200932E-1,8.776956E-2,1.716908E-1,-4.740883E-1,2.8764725E-1,-7.0209223E-1,-7.299046E-1,1.0003663E-1,3.7355386E-2,2.3411547E-1,-1.8402229E-1,1.0915946E-1,-1.3371715E-1,2.2831662E-1,-2.6889977E-1,-5.2790176E-2,-2.667804E-1,1.4222574E-3],"categories":[],"categories_nodes":[],"categories_segments":[],"categories_sizes":[],"default_left":[0,0,0,0,0,0,0,0,0,0,0,0,0,0,0,0,0,0,0,0,0,0,0,0,0,0,0,0,0,0,0],"id":11,"left_children":[1,3,-1,5,7,9,-1,11,13,15,-1,17,-1,19,-1,21,23,25,27,29,-1,-1,-1,-1,-1,-1,-1,-1,-1,-1,-1],"loss_changes":[3.5145166E0,3.543278E0,0E0,3.5849702E0,1.3588336E0,3.5913033E0,0E0,1.1350956E0,1.4113922E0,3.7591786E0,0E0,1.6174649E0,0E0,1.6659379E0,0E0,3.503072E0,1.362176E0,1.6046033E0,1.6283047E-1,1.4672108E0,0E0,0E0,0E0,0E0,0E0,0E0,0E0,0E0,0E0,0E0,0E0],"parents":[2147483647,0,0,1,1,3,3,4,4,5,5,7,7,8,8,9,9,11,11,13,13,15,15,16,16,17,17,18,18,19,19],"right_children":[2,4,-1,6,8,10,-1,12,14,16,-1,18,-1,20,-1,22,24,26,28,30,-1,-1,-1,-1,-1,-1,-1,-1,-1,-1,-1],"split_conditions":[1E0,4E0,-3.453806E-1,1E0,1E0,1E0,-3.5457593E-1,5.08911E2,1E0,1E0,-3.3286193E-1,1.3296E2,1.9261687E-1,1E0,8.776956E-2,1E0,1E0,1.3E1,6E0,1E0,1.0003663E-1,3.7355386E-2,2.3411547E-1,-1.8402229E-1,1.0915946E-1,-1.3371715E-1,2.2831662E-1,-2.6889977E-1,-5.2790176E-2,-2.667804E-1,1.4222574E-3],"split_indices":[520,3,0,1661,1067,82,0,0,859,466,0,2,0,772,0,1305,1764,7,5,1592,0,0,0,0,0,0,0,0,0,0,0],"split_type":[0,0,0,0,0,0,0,0,0,0,0,0,0,0,0,0,0,0,0,0,0,0,0,0,0,0,0,0,0,0,0],"sum_hessian":[1.5724937E2,1.556744E2,1.5749855E0,1.3574593E2,1.9928467E1,1.3454182E2,1.2041088E0,6.0018754E0,1.3926591E1,1.3313985E2,1.4019703E0,4.781422E0,1.2204534E0,1.2585525E1,1.3410668E0,1.2438356E2,8.756288E0,2.644706E0,2.136716E0,1.1496157E1,1.0893675E0,1.1655527E2,7.828291E0,7.7377653E0,1.0185225E0,1.060434E0,1.5842721E0,1.0466523E0,1.0900636E0,9.2739315E0,2.2222252E0],"tree_param":{"num_deleted":"0","num_feature":"2058","num_nodes":"31","size_leaf_vector":"1"}},{"base_weights":[-7.613382E-4,-2.5858058E-2,2.4863733E-1,-4.9487855E-2,2.4333704E-1,-8.051251E-2,5.275785E-1,4.1759393E-1,-1.1847263E-1,7.940799E-1,-1.6272718E-1,6.615202E-1,-1.5088688E-1,-9.834536E-2,-3.8347402E-1,2.864701E-1,-1.2146112E-2,2.578138E-1,-3.8992807E-2,-1.9262367E-1,1.6425298E-1,-3.7312333E-2,1.9330926E-1],"categories":[],"categories_nodes":[],"categories_segments":[],"categories_sizes":[],"default_left":[0,0,0,0,0,0,0,0,0,0,0,0,0,0,0,0,0,0,0,0,0,0,0],"id":12,"left_children":[1,3,-1,5,-1,7,9,11,13,15,-1,17,19,21,-1,-1,-1,-1,-1,-1,-1,-1,-1],"loss_changes":[3.20976E0,2.9992313E0,0E0,2.6644473E0,0E0,2.6937368E0,2.5991614E0,1.5036741E0,2.9257836E0,9.1023874E-1,0E0,1.2502062E0,1.6736461E0,2.5851316E0,0E0,0E0,0E0,0E0,0E0,0E0,0E0,0E0,0E0],"parents":[2147483647,0,0,1,1,3,3,5,5,6,6,7,7,8,8,9,9,11,11,12,12,13,13],"right_children":[2,4,-1,6,-1,8,10,12,14,16,-1,18,20,22,-1,-1,-1,-1,-1,-1,-1,-1,-1],"split_conditions":[1E0,1E0,2.4863733E-1,1E0,2.4333704E-1,2.693E1,1E0,3.1723E2,1E0,1E0,-1.6272718E-1,1E0,1E0,1E0,-3.8347402E-1,2.864701E-1,-1.2146112E-2,2.578138E-1,-3.8992807E-2,-1.9262367E-1,1.6425298E-1,-3.7312333E-2,1.9330926E-1],"split_indices":[2032,782,0,808,0,2,760,0,424,1136,0,1462,885,1454,0,0,0,0,0,0,0,0,0],"split_type":[0,0,0,0,0,0,0,0,0,0,0,0,0,0,0,0,0,0,0,0,0,0,0],"sum_hessian":[1.5214484E2,1.486175E2,3.5273445E0,1.4545193E2,3.1655498E0,1.388476E2,6.6043444E0,9.123936E0,1.2972366E2,5.4938765E0,1.110468E0,6.26994E0,2.8539963E0,1.2857707E2,1.1465905E0,4.485364E0,1.0085121E0,4.9474134E0,1.3225262E0,1.7228978E0,1.1310986E0,1.2502787E2,3.5491996E0],"tree_param":{"num_deleted":"0","num_feature":"2058","num_nodes":"23","size_leaf_vector":"1"}},{"base_weights":[6.5026814E-3,2.6471563E-2,-8.868951E-1,-5.5368996E-1,5.6949668E-2,-3.4032276E-1,-8.873344E-2,-9.2665225E-1,3.0623934E-1,6.4150125E-1,2.03609E-2,-3.7002963E-1,2.5293862E-2,1.9092206E-3,1.3590299E-1,8.566846E-1,-8.471706E-2,-2.866834E-3,2.9233277E-1,2.7855706E-1,7.79237E-2,4.5202944E-2,-5.5191404E-1,2.9359888E-2,-1.530173E-1,-1.4906045E-2,-2.673176E-1],"categories":[],"categories_nodes":[],"categories_segments":[],"categories_sizes":[],"default_left":[0,0,0,0,0,0,0,0,0,0,0,0,0,0,0,0,0,0,0,0,0,0,0,0,0,0,0],"id":13,"left_children":[1,3,5,7,9,-1,-1,11,13,15,17,-1,-1,-1,-1,19,-1,21,-1,-1,-1,23,25,-1,-1,-1,-1],"loss_changes":[2.7243285E0,2.6671176E0,1.5297294E-1,2.6996913E0,3.0351608E0,0E0,0E0,1.8105316E0,1.3049111E-1,1.9044306E0,2.9980416E0,0E0,0E0,0E0,0E0,6.031704E-2,0E0,3.53364E0,0E0,0E0,0E0,3.6514757E0,1.791513E0,0E0,0E0,0E0,0E0],"parents":[2147483647,0,0,1,1,2,2,3,3,4,4,7,7,8,8,9,9,10,10,15,15,17,17,21,21,22,22],"right_children":[2,4,6,8,10,-1,-1,12,14,16,18,-1,-1,-1,-1,20,-1,22,-1,-1,-1,24,26,-1,-1,-1,-1],"split_conditions":[1E0,-1.7553E0,2.2E1,1E0,1E0,-3.4032276E-1,-8.873344E-2,1E0,1.4423E2,4E0,1E0,-3.7002963E-1,2.5293862E-2,1.9092206E-3,1.3590299E-1,2E0,-8.471706E-2,1E0,2.9233277E-1,2.7855706E-1,7.79237E-2,1E0,3.7142858E-1,2.9359888E-2,-1.530173E-1,-1.4906045E-2,-2.673176E-1],"split_indices":[1697,1,7,1236,1390,0,0,1854,2,3,1099,0,0,0,0,6,0,15,0,0,0,402,8,0,0,0,0],"split_type":[0,0,0,0,0,0,0,0,0,0,0,0,0,0,0,0,0,0,0,0,0,0,0,0,0,0,0],"sum_hessian":[1.5039166E2,1.4805281E2,2.3388493E0,6.5327525E0,1.4152007E2,1.0007278E0,1.3381217E0,4.502409E0,2.0303435E0,7.362478E0,1.341576E2,3.2853942E0,1.2170147E0,1.0100383E0,1.0203054E0,6.0306287E0,1.3318491E0,1.3194235E2,2.215227E0,4.8870234E0,1.1436054E0,1.2216438E2,9.777976E0,1.1233389E2,9.830492E0,4.403497E0,5.3744783E0],"tree_param":{"num_deleted":"0","num_feature":"2058","num_nodes":"27","size_leaf_vector":"1"}},{"base_weights":[1.7981431E-3,2.3801384E-2,-8.0354816E-1,-3.5021012E-4,2.6252478E-1,-4.9627E-2,-3.2049957E-1,1.6648224E-2,-3.082417E-1,-1.6218578E-2,8.0559295E-1,-5.739149E-2,5.3743875E-1,2.7830753E-1,3.890132E-2,2.241534E-3,-1.1387055E-1,2.2901691E-1,-1.5804307E-1],"categories":[],"categories_nodes":[],"categories_segments":[],"categories_sizes":[],"default_left":[0,0,0,0,0,0,0,0,0,0,0,0,0,0,0,0,0,0,0],"id":14,"left_children":[1,3,5,7,-1,-1,-1,9,-1,11,13,15,17,-1,-1,-1,-1,-1,-1],"loss_changes":[2.6367788E0,2.976621E0,4.9193406E-1,2.4923277E0,0E0,0E0,0E0,3.6548343E0,0E0,3.1267052E0,3.4488916E-1,2.6633356E0,2.6858633E0,0E0,0E0,0E0,0E0,0E0,0E0],"parents":[2147483647,0,0,1,1,2,2,3,3,7,7,9,9,10,10,11,11,12,12],"right_children":[2,4,6,8,-1,-1,-1,10,-1,12,14,16,18,-1,-1,-1,-1,-1,-1],"split_conditions":[1E0,1E0,1E0,1E0,2.6252478E-1,-4.9627E-2,-3.2049957E-1,1E0,-3.082417E-1,1E0,3.87911E2,1E0,4E0,2.7830753E-1,3.890132E-2,2.241534E-3,-1.1387055E-1,2.2901691E-1,-1.5804307E-1],"split_indices":[923,1304,705,1285,0,0,0,734,0,23,0,1462,9,0,0,0,0,0,0],"split_type":[0,0,0,0,0,0,0,0,0,0,0,0,0,0,0,0,0,0,0],"sum_hessian":[1.4672119E2,1.437638E2,2.9573917E0,1.4076962E2,2.9941692E0,1.3437419E0,1.61365E0,1.3944565E2,1.3239748E0,1.3480905E2,4.636594E0,1.2631215E2,8.496903E0,3.6116931E0,1.0249009E0,1.0595687E2,2.0355284E1,7.242041E0,1.2548629E0],"tree_param":{"num_deleted":"0","num_feature":"2058","num_nodes":"19","size_leaf_vector":"1"}},{"base_weights":[2.270845E-3,2.279416E-2,-8.039282E-1,4.4173487E-2,-7.916202E-1,1.47481505E-2,-4.3016443E-1,-1.0954025E-1,1.83196E-1,-2.805931E-1,-7.275686E-2,3.2221094E-1,-2.6119706E-1,3.1204745E-1,-2.3318855E-1,-2.594742E-1,5.2098393E-1,-3.1263834E-1,2.2418867E-1,4.135083E-1,-6.3416314E-1,-5.824243E-2,-9.8316467E-1,2.0107721E-1,-1.6783062E-1,-1.9285835E-1,-4.5484513E-2,1.589112E-1,-1.2011324E-1,5.2133817E-2,-2.5360236E-1,1.9791602E-1,-8.036524E-2,-3.6352193E-1,-6.7769684E-2],"categories":[],"categories_nodes":[],"categories_segments":[],"categories_sizes":[],"default_left":[0,0,0,0,0,0,0,0,0,0,0,0,0,0,0,0,0,0,0,0,0,0,0,0,0,0,0,0,0,0,0,0,0,0,0],"id":15,"left_children":[1,3,5,7,9,-1,-1,11,13,-1,-1,15,17,19,21,-1,23,25,-1,27,29,31,33,-1,-1,-1,-1,-1,-1,-1,-1,-1,-1,-1,-1],"loss_changes":[2.4358726E0,2.532789E0,2.0345933E0,3.0275183E0,6.686568E-2,0E0,0E0,4.501415E0,4.0576377E0,0E0,0E0,4.6943436E0,2.8523016E0,5.748656E0,2.3207922E0,0E0,2.960092E0,2.493815E0,0E0,5.1504393E0,1.1585355E0,2.5487545E0,3.0876756E-1,0E0,0E0,0E0,0E0,0E0,0E0,0E0,0E0,0E0,0E0,0E0,0E0],"parents":[2147483647,0,0,1,1,2,2,3,3,4,4,7,7,8,8,11,11,12,12,13,13,14,14,16,16,17,17,19,19,20,20,21,21,22,22],"right_children":[2,4,6,8,10,-1,-1,12,14,-1,-1,16,18,20,22,-1,24,26,-1,28,30,32,34,-1,-1,-1,-1,-1,-1,-1,-1,-1,-1,-1,-1],"split_conditions":[1E0,1E0,5.833333E-1,1E0,1.3043E0,1.47481505E-2,-4.3016443E-1,1E0,1E0,-2.805931E-1,-7.275686E-2,-1.7553E0,1E0,1.7661E2,1E0,-2.594742E-1,3.54416E2,1E0,2.2418867E-1,1E0,3.5714287E-1,4.146E1,7.168E1,2.0107721E-1,-1.6783062E-1,-1.9285835E-1,-4.5484513E-2,1.589112E-1,-1.2011324E-1,5.2133817E-2,-2.5360236E-1,1.9791602E-1,-8.036524E-2,-3.6352193E-1,-6.7769684E-2],"split_indices":[1628,1310,8,936,1,0,0,1760,11,0,0,1,1305,2,1462,0,0,660,0,418,8,2,2,0,0,0,0,0,0,0,0,0,0,0,0],"split_type":[0,0,0,0,0,0,0,0,0,0,0,0,0,0,0,0,0,0,0,0,0,0,0,0,0,0,0,0,0,0,0,0,0,0,0],"sum_hessian":[1.4511179E2,1.42457E2,2.6547847E0,1.3973456E2,2.722435E0,1.5192982E0,1.1354866E0,6.646165E1,7.327292E1,1.6003016E0,1.1221333E0,1.6984352E1,4.947729E1,5.6148254E1,1.7124666E1,1.9553313E0,1.5029021E1,4.773254E1,1.7447511E0,5.1219086E1,4.9291673E0,1.4759412E1,2.3652532E0,1.3538184E1,1.4908373E0,1.4665182E1,3.306736E1,4.5125797E1,6.0932884E0,1.0580988E0,3.8710682E0,2.8504725E0,1.1908939E1,1.355849E0,1.0094043E0],"tree_param":{"num_deleted":"0","num_feature":"2058","num_nodes":"35","size_leaf_vector":"1"}},{"base_weights":[-5.0258264E-3,1.5037697E-2,-3.069099E-1,-2.7682744E-2,4.3479672E-1,-5.2618403E-2,7.533478E-1,6.12574E-1,-1.9486187E-1,-2.0864118E-2,-7.0639026E-1,9.307542E-2,2.983915E-1,7.359334E-1,-7.7892266E-2,-1.3933891E-3,-3.2246614E-1,-9.190806E-1,4.4278096E-2,-6.646911E-2,8.7549704E-1,5.497739E-3,-2.870116E-1,-3.4883428E-1,-4.2185802E-2,2.8904587E-1,6.269256E-2],"categories":[],"categories_nodes":[],"categories_segments":[],"categories_sizes":[],"default_left":[0,0,0,0,0,0,0,0,0,0,0,0,0,0,0,0,0,0,0,0,0,0,0,0,0,0,0],"id":16,"left_children":[1,3,-1,5,7,9,11,13,-1,15,17,-1,-1,19,-1,21,-1,23,-1,-1,25,-1,-1,-1,-1,-1,-1],"loss_changes":[2.8949873E0,2.5090392E0,0E0,2.5193357E0,2.8889446E0,2.5661364E0,1.19556665E-1,1.4410024E0,0E0,2.4528215E0,1.1760798E0,0E0,0E0,1.5888543E0,0E0,2.2483866E0,0E0,7.3275447E-1,0E0,0E0,3.4478807E-1,0E0,0E0,0E0,0E0,0E0,0E0],"parents":[2147483647,0,0,1,1,3,3,4,4,5,5,6,6,7,7,9,9,10,10,13,13,15,15,17,17,20,20],"right_children":[2,4,-1,6,8,10,12,14,-1,16,18,-1,-1,20,-1,22,-1,24,-1,-1,26,-1,-1,-1,-1,-1,-1],"split_conditions":[1E0,1E0,-3.069099E-1,1E0,1E0,1E0,3E0,1E0,-1.9486187E-1,1E0,1E0,9.307542E-2,2.983915E-1,1E0,-7.7892266E-2,1E0,-3.2246614E-1,1E0,4.4278096E-2,-6.646911E-2,4E0,5.497739E-3,-2.870116E-1,-3.4883428E-1,-4.2185802E-2,2.8904587E-1,6.269256E-2],"split_indices":[844,1467,0,1085,466,735,3,1876,0,327,21,0,0,9,0,520,0,705,0,0,3,0,0,0,0,0,0],"split_type":[0,0,0,0,0,0,0,0,0,0,0,0,0,0,0,0,0,0,0,0,0,0,0,0,0,0,0],"sum_hessian":[1.3998558E2,1.3824617E2,1.739414E0,1.2632378E2,1.1922391E1,1.23319244E2,3.004536E0,1.0616829E1,1.3055624E0,1.1859108E2,4.728162E0,1.8651844E0,1.1393516E0,9.438208E0,1.1786212E0,1.1742327E2,1.1678118E0,3.7243583E0,1.0038033E0,1.1259449E0,8.312263E0,1.1600946E2,1.4138062E0,2.4604225E0,1.2639359E0,6.949322E0,1.3629404E0],"tree_param":{"num_deleted":"0","num_feature":"2058","num_nodes":"27","size_leaf_vector":"1"}},{"base_weights":[-8.280312E-3,1.0018693E-2,-2.4903865E-1,3.2054216E-2,-6.5734833E-1,1.0743266E-1,-1.8529986E-1,-2.7699944E-1,1.7885013E-2,-1.2498833E-2,4.2585412E-1,-3.1365454E-1,-7.731654E-2,3.8809142E-1,-1.24883905E-1,5.32571E-1,-5.3873044E-1,-2.1665722E-1,7.09992E-1,2.0273797E-1,-7.618356E-2,-1.8301861E-1,-1.3480289E-2,1.8732092E-1,-2.102822E-1,-2.3942964E-2,-2.3176585E-1,-3.535855E-1,-3.4451764E-2,2.4817911E-1,3.8789175E-2],"categories":[],"categories_nodes":[],"categories_segments":[],"categories_sizes":[],"default_left":[0,0,0,0,0,0,0,0,0,0,0,0,0,0,0,0,0,0,0,0,0,0,0,0,0,0,0,0,0,0,0],"id":17,"left_children":[1,3,-1,5,7,9,11,-1,-1,13,15,-1,17,19,21,23,25,27,29,-1,-1,-1,-1,-1,-1,-1,-1,-1,-1,-1,-1],"loss_changes":[2.1124942E0,2.04834E0,0E0,2.221932E0,9.0419626E-1,3.8405018E0,3.1680045E0,0E0,0E0,3.376463E0,3.118195E0,0E0,3.6813147E0,3.2080786E0,2.2411458E0,3.2999134E0,2.8569227E-1,2.615499E0,2.3822498E-1,0E0,0E0,0E0,0E0,0E0,0E0,0E0,0E0,0E0,0E0,0E0,0E0],"parents":[2147483647,0,0,1,1,3,3,4,4,5,5,6,6,9,9,10,10,12,12,13,13,14,14,15,15,16,16,17,17,18,18],"right_children":[2,4,-1,6,8,10,12,-1,-1,14,16,-1,18,20,22,24,26,28,30,-1,-1,-1,-1,-1,-1,-1,-1,-1,-1,-1,-1],"split_conditions":[1E0,1E0,-2.4903865E-1,3.4701E0,2.2017E0,2.3184E0,1E0,-2.7699944E-1,1.7885013E-2,5.679E1,1E0,-3.1365454E-1,1E0,1E0,6.684E1,1E0,1E0,1.15384616E-1,1E0,2.0273797E-1,-7.618356E-2,-1.8301861E-1,-1.3480289E-2,1.8732092E-1,-2.102822E-1,-2.3942964E-2,-2.3176585E-1,-3.535855E-1,-3.4451764E-2,2.4817911E-1,3.8789175E-2],"split_indices":[80,394,0,1,1,1,5,0,0,2,1107,0,1938,11,2,442,971,8,1748,0,0,0,0,0,0,0,0,0,0,0,0],"split_type":[0,0,0,0,0,0,0,0,0,0,0,0,0,0,0,0,0,0,0,0,0,0,0,0,0,0,0,0,0,0,0],"sum_hessian":[1.3891463E2,1.3685526E2,2.0593643E0,1.3340247E2,3.452793E0,9.942692E1,3.397555E1,2.3085303E0,1.1442627E0,7.292203E1,2.6504889E1,2.8209724E0,3.115458E1,1.5438639E1,5.7483387E1,2.4267885E1,2.2370043E0,2.7085672E1,4.068907E0,1.062494E1,4.8136992E0,7.1942353E0,5.028915E1,2.3045965E1,1.2219181E0,1.2077982E0,1.0292059E0,1.5802238E0,2.550545E1,3.0319855E0,1.0369214E0],"tree_param":{"num_deleted":"0","num_feature":"2058","num_nodes":"31","size_leaf_vector":"1"}},{"base_weights":[-1.1253008E-2,9.749222E-3,-6.796181E-1,-1.5705885E-2,2.2384237E-1,-2.0399544E-2,-3.244546E-1,9.416558E-3,-3.587879E-1,2.9827261E-2,-2.483465E-1,4.869874E-2,-2.7363417E-1,-1.9090008E-2,6.430224E-2],"categories":[],"categories_nodes":[],"categories_segments":[],"categories_sizes":[],"default_left":[0,0,0,0,0,0,0,0,0,0,0,0,0,0,0],"id":18,"left_children":[1,3,5,7,-1,-1,-1,9,-1,11,-1,13,-1,-1,-1],"loss_changes":[1.9229896E0,2.5113077E0,9.52309E-1,3.8620582E0,0E0,0E0,0E0,2.2147138E0,0E0,2.2854528E0,0E0,2.331041E0,0E0,0E0,0E0],"parents":[2147483647,0,0,1,1,2,2,3,3,7,7,9,9,11,11],"right_children":[2,4,6,8,-1,-1,-1,10,-1,12,-1,14,-1,-1,-1],"split_conditions":[1E0,1E0,3.95569E2,1E0,2.2384237E-1,-2.0399544E-2,-3.244546E-1,1E0,-3.587879E-1,1E0,-2.483465E-1,4.6666667E-1,-2.7363417E-1,-1.9090008E-2,6.430224E-2],"split_indices":[1106,1680,0,1628,0,0,0,1519,0,661,0,8,0,0,0],"split_type":[0,0,0,0,0,0,0,0,0,0,0,0,0,0,0],"sum_hessian":[1.355208E2,1.3234741E2,3.1733775E0,1.2887135E2,3.4760668E0,1.7219913E0,1.4513862E0,1.2715675E2,1.7145901E0,1.2507205E2,2.0847085E0,1.2354516E2,1.5268865E0,7.398632E1,4.955884E1],"tree_param":{"num_deleted":"0","num_feature":"2058","num_nodes":"15","size_leaf_vector":"1"}},{"base_weights":[-1.4619065E-2,2.1982854E-3,-2.400243E-1,2.0158956E-2,-7.4010676E-1,4.0147875E-2,-2.0598537E-1,-2.7852756E-1,-6.4027146E-2,1.3552431E-2,8.2484496E-1,8.477074E-2,-2.7182692E-1,2.9136512E-1,5.647864E-2,1.0545853E-2,2.1126671E-1,-2.5235394E-1,-1.8070241E-2],"categories":[],"categories_nodes":[],"categories_segments":[],"categories_sizes":[],"default_left":[0,0,0,0,0,0,0,0,0,0,0,0,0,0,0,0,0,0,0],"id":19,"left_children":[1,3,-1,5,7,9,-1,-1,-1,11,13,15,17,-1,-1,-1,-1,-1,-1],"loss_changes":[1.7881738E0,1.7934573E0,0E0,1.8814415E0,1.1705887E-1,2.6717515E0,0E0,0E0,0E0,2.5709026E0,2.0828414E-1,3.0822244E0,2.9941473E0,0E0,0E0,0E0,0E0,0E0,0E0],"parents":[2147483647,0,0,1,1,3,3,4,4,5,5,9,9,10,10,11,11,12,12],"right_children":[2,4,-1,6,8,10,-1,-1,-1,12,14,16,18,-1,-1,-1,-1,-1,-1],"split_conditions":[1E0,1E0,-2.400243E-1,1E0,2.2E1,1E0,-2.0598537E-1,-2.7852756E-1,-6.4027146E-2,4.37515E2,2.2392E0,1E0,1E0,2.9136512E-1,5.647864E-2,1.0545853E-2,2.1126671E-1,-2.5235394E-1,-1.8070241E-2],"split_indices":[844,1697,0,1237,7,1317,0,0,0,0,1,496,936,0,0,0,0,0,0],"split_type":[0,0,0,0,0,0,0,0,0,0,0,0,0,0,0,0,0,0,0],"sum_hessian":[1.3423828E2,1.3240068E2,1.8376005E0,1.3022269E2,2.1780002E0,1.275583E2,2.664382E0,1.0424786E0,1.1355217E0,1.2436066E2,3.1976383E0,1.00086395E2,2.4274267E1,2.172446E0,1.0251921E0,9.364241E1,6.443983E0,5.77079E0,1.8503477E1],"tree_param":{"num_deleted":"0","num_feature":"2058","num_nodes":"19","size_leaf_vector":"1"}},{"base_weights":[-1.3479852E-2,-9.726472E-2,1.4130004E-1,-1.2454923E-2,-4.7551224E-1,2.0574708E-1,-5.9680843E-1,-2.1093544E-1,2.1995349E-1,-6.7605394E-1,1.7881826E-1,1.5425092E-2,5.322205E-1,-2.981456E-1,5.5716664E-2,-2.9345483E-1,2.1275039E-1,3.077614E-1,-2.8194648E-1,-3.1456256E-1,-1.1636715E0,-1.8144745E-1,6.9446313E-1,7.777551E-1,-1.570414E-1,1.159315E-1,-4.7811007E-1,4.2327458E-1,-4.3089944E-1,1.211382E-1,-4.6517766E-1,-4.1510466E-1,-4.5024298E-2,2.37953E-1,-5.0329226E-1,2.6549825E-1,-5.197481E-2,9.2193097E-1,1.5949677E-1,-1.8149829E-1,3.2868093E-1,1.2363957E-1,-2.9143623E-1,-1.7286335E-1,2.0190595E-1,1.5451561E-1,-1.8418612E-1,4.9433786E-2,-2.0342138E-1,-1.8615249E-1,7.990092E-2,-1.0658261E-1,1.20730735E-1,-2.1451777E-1,1.3964066E-1,4.9544096E-2,3.0909586E-1,-5.781121E-2,1.3762079E-1,-5.1289704E-2,1.9695105E-1],"categories":[],"categories_nodes":[],"categories_segments":[],"categories_sizes":[],"default_left":[0,0,0,0,0,0,0,0,0,0,0,0,0,0,0,0,0,0,0,0,0,0,0,0,0,0,0,0,0,0,0,0,0,0,0,0,0,0,0,0,0,0,0,0,0,0,0,0,0,0,0,0,0,0,0,0,0,0,0,0,0],"id":20,"left_children":[1,3,5,7,9,11,13,15,17,19,-1,21,23,-1,-1,25,-1,27,-1,29,31,33,35,37,39,41,43,45,47,-1,49,-1,-1,51,53,-1,-1,55,57,-1,59,-1,-1,-1,-1,-1,-1,-1,-1,-1,-1,-1,-1,-1,-1,-1,-1,-1,-1,-1,-1],"loss_changes":[1.743816E0,2.7896855E0,2.3709626E0,3.3774788E0,3.8271718E0,2.7387695E0,1.4432831E0,3.204163E0,3.7265644E0,2.0824966E0,0E0,3.997276E0,2.8724957E0,0E0,0E0,2.8463778E0,0E0,2.9239469E0,0E0,1.1992016E0,1.0284991E0,3.257066E0,1.2636433E0,9.360547E-1,1.3086482E0,4.3559265E0,3.2830796E0,3.0092664E0,8.244524E-1,0E0,1.0961028E0,0E0,0E0,1.1939378E0,3.0965805E0,0E0,0E0,6.20903E-1,4.5800126E-1,0E0,6.192057E-1,0E0,0E0,0E0,0E0,0E0,0E0,0E0,0E0,0E0,0E0,0E0,0E0,0E0,0E0,0E0,0E0,0E0,0E0,0E0,0E0],"parents":[2147483647,0,0,1,1,2,2,3,3,4,4,5,5,6,6,7,7,8,8,9,9,11,11,12,12,15,15,17,17,19,19,20,20,21,21,22,22,23,23,24,24,25,25,26,26,27,27,28,28,30,30,33,33,34,34,37,37,38,38,40,40],"right_children":[2,4,6,8,10,12,14,16,18,20,-1,22,24,-1,-1,26,-1,28,-1,30,32,34,36,38,40,42,44,46,48,-1,50,-1,-1,52,54,-1,-1,56,58,-1,60,-1,-1,-1,-1,-1,-1,-1,-1,-1,-1,-1,-1,-1,-1,-1,-1,-1,-1,-1,-1],"split_conditions":[1E0,1E0,4E0,1E0,5E0,6.784E1,5.3801E0,1E0,1E0,1.56202E0,1.7881826E-1,1E0,1E0,-2.981456E-1,5.5716664E-2,4.8E1,2.1275039E-1,1E0,-2.8194648E-1,2.2727273E-1,3.4925E0,3E0,4.9116E0,3.5E1,4E0,1E0,1E0,1E0,3.07825E2,1.211382E-1,1E0,-4.1510466E-1,-4.5024298E-2,1.67197E2,1E0,2.6549825E-1,-5.197481E-2,3E0,1.1E1,-1.8149829E-1,1E0,1.2363957E-1,-2.9143623E-1,-1.7286335E-1,2.0190595E-1,1.5451561E-1,-1.8418612E-1,4.9433786E-2,-2.0342138E-1,-1.8615249E-1,7.990092E-2,-1.0658261E-1,1.20730735E-1,-2.1451777E-1,1.3964066E-1,4.9544096E-2,3.0909586E-1,-5.781121E-2,1.3762079E-1,-5.1289704E-2,1.9695105E-1],"split_indices":[1209,399,9,1927,6,2,1,685,112,1,0,885,685,0,0,2,0,1732,0,8,1,4,1,7,6,632,1277,394,0,0,157,0,0,0,1124,0,0,5,5,0,388,0,0,0,0,0,0,0,0,0,0,0,0,0,0,0,0,0,0,0,0],"split_type":[0,0,0,0,0,0,0,0,0,0,0,0,0,0,0,0,0,0,0,0,0,0,0,0,0,0,0,0,0,0,0,0,0,0,0,0,0,0,0,0,0,0,0,0,0,0,0,0,0,0,0,0,0,0,0,0,0,0,0,0,0],"sum_hessian":[1.324087E2,8.614735E1,4.6261364E1,7.121305E1,1.4934299E1,4.3209805E1,3.05156E0,3.845999E1,3.2753056E1,1.2890906E1,2.0433931E0,2.7958357E1,1.5251447E1,1.8453377E0,1.2062222E0,3.591961E1,2.540384E0,3.1130749E1,1.622308E0,8.347589E0,4.5433173E0,2.2242428E1,5.715928E0,1.1150821E1,4.1006265E0,1.1281141E1,2.4638466E1,2.729005E1,3.8406994E0,1.1554968E0,7.192092E0,3.433015E0,1.1103023E0,9.770722E0,1.2471705E1,4.670476E0,1.045452E0,8.643912E0,2.5069077E0,2.005509E0,2.0951178E0,9.354102E0,1.9270393E0,2.3163845E1,1.4746208E0,2.5534138E1,1.755912E0,1.2240665E0,2.616633E0,6.057568E0,1.1345237E0,1.8692122E0,7.9015102E0,1.0449396E1,2.0223098E0,1.3990692E0,7.2448435E0,1.3150868E0,1.1918209E0,1.0195953E0,1.0755224E0],"tree_param":{"num_deleted":"0","num_feature":"2058","num_nodes":"61","size_leaf_vector":"1"}},{"base_weights":[-8.187093E-3,1.0540581E-2,-7.398276E-1,2.7402157E-2,-2.4129686E-1,-3.2111108E-1,-2.4320083E-2,4.287589E-2,-2.4570097E-1,2.6940065E-2,2.692308E-1,4.2174265E-2,-2.6474306E-1,1.9574162E-2,-1.6300324E-1],"categories":[],"categories_nodes":[],"categories_segments":[],"categories_sizes":[],"default_left":[0,0,0,0,0,0,0,0,0,0,0,0,0,0,0],"id":21,"left_children":[1,3,5,7,-1,-1,-1,9,-1,11,-1,13,-1,-1,-1],"loss_changes":[1.7590005E0,1.7478129E0,6.1086273E-1,1.6594625E0,0E0,0E0,0E0,1.6474128E0,0E0,1.720942E0,0E0,1.6631374E0,0E0,0E0,0E0],"parents":[2147483647,0,0,1,1,2,2,3,3,7,7,9,9,11,11],"right_children":[2,4,6,8,-1,-1,-1,10,-1,12,-1,14,-1,-1,-1],"split_conditions":[1E0,1E0,3E0,1E0,-2.4129686E-1,-3.2111108E-1,-2.4320083E-2,1E0,-2.4570097E-1,1E0,2.692308E-1,1E0,-2.6474306E-1,1.9574162E-2,-1.6300324E-1],"split_indices":[1819,218,6,1746,0,0,0,2010,0,327,0,1271,0,0,0],"split_type":[0,0,0,0,0,0,0,0,0,0,0,0,0,0,0],"sum_hessian":[1.2680704E2,1.2460318E2,2.203853E0,1.2302388E2,1.5793017E0,1.051449E0,1.152404E0,1.21747475E2,1.2764075E0,1.20531334E2,1.2161412E0,1.1948341E2,1.0479151E0,1.1580843E2,3.6749816E0],"tree_param":{"num_deleted":"0","num_feature":"2058","num_nodes":"15","size_leaf_vector":"1"}},{"base_weights":[-1.319401E-2,-3.1095462E-2,2.1095017E-1,-4.9365375E-2,1.9513467E-1,-2.8515846E-2,-6.786316E-1,-6.664223E-2,3.6251742E-1,-2.7063507E-1,-4.9050435E-2,-9.056155E-2,5.116384E-1,6.416935E-1,-2.2934835E-1,-2.1710561E-1,-1.6203927E-2,2.4492584E-1,-1.6069513E-2,2.4407488E-1,-4.5157097E-2,-1.6469322E-1,1.00951545E-1],"categories":[],"categories_nodes":[],"categories_segments":[],"categories_sizes":[],"default_left":[0,0,0,0,0,0,0,0,0,0,0,0,0,0,0,0,0,0,0,0,0,0,0],"id":22,"left_children":[1,3,-1,5,-1,7,9,11,13,-1,-1,15,17,19,21,-1,-1,-1,-1,-1,-1,-1,-1],"loss_changes":[1.6514888E0,1.5877881E0,0E0,1.5892043E0,0E0,1.8089691E0,3.001181E-1,1.5668303E0,1.9301902E0,0E0,0E0,2.4231768E0,8.2177687E-1,1.1567817E0,9.4349885E-1,0E0,0E0,0E0,0E0,0E0,0E0,0E0,0E0],"parents":[2147483647,0,0,1,1,3,3,5,5,6,6,7,7,8,8,11,11,12,12,13,13,14,14],"right_children":[2,4,-1,6,-1,8,10,12,14,-1,-1,16,18,20,22,-1,-1,-1,-1,-1,-1,-1,-1],"split_conditions":[1E0,1E0,2.1095017E-1,1E0,1.9513467E-1,1E0,1E0,1E0,1E0,-2.7063507E-1,-4.9050435E-2,-1.7553E0,1E0,4.95639E2,1E0,-2.1710561E-1,-1.6203927E-2,2.4492584E-1,-1.6069513E-2,2.4407488E-1,-4.5157097E-2,-1.6469322E-1,1.00951545E-1],"split_indices":[102,845,0,1689,0,241,1267,587,399,0,0,1,1124,0,1209,0,0,0,0,0,0,0,0],"split_type":[0,0,0,0,0,0,0,0,0,0,0,0,0,0,0,0,0,0,0,0,0,0,0],"sum_hessian":[1.26076996E2,1.23936485E2,2.1405087E0,1.2160425E2,2.3322327E0,1.1871613E2,2.8881154E0,1.08925316E2,9.790823E0,1.4903135E0,1.397802E0,1.0540871E2,3.5166063E0,6.595579E0,3.1952436E0,4.7267737E0,1.0068193E2,1.995877E0,1.5207293E0,5.3975E0,1.1980793E0,2.060928E0,1.1343155E0],"tree_param":{"num_deleted":"0","num_feature":"2058","num_nodes":"23","size_leaf_vector":"1"}},{"base_weights":[-6.6625993E-3,-2.134174E-2,2.2446091E-1,-1.0435096E-3,-6.0671586E-1,-1.7987866E-2,1.9274321E-1,-7.161209E-2,-2.3928176E-1,-3.2775026E-2,2.2613178E-1,-4.8732385E-2,2.1291584E-1,-6.87578E-3,-1.9007196E-1],"categories":[],"categories_nodes":[],"categories_segments":[],"categories_sizes":[],"default_left":[0,0,0,0,0,0,0,0,0,0,0,0,0,0,0],"id":23,"left_children":[1,3,-1,5,7,9,-1,-1,-1,11,-1,13,-1,-1,-1],"loss_changes":[1.4103746E0,1.4776375E0,0E0,1.3336093E0,1.02388024E-1,1.383965E0,0E0,0E0,0E0,1.430613E0,0E0,1.7409425E0,0E0,0E0,0E0],"parents":[2147483647,0,0,1,1,3,3,4,4,5,5,9,9,11,11],"right_children":[2,4,-1,6,8,10,-1,-1,-1,12,-1,14,-1,-1,-1],"split_conditions":[1E0,1E0,2.2446091E-1,1E0,1E0,1E0,1.9274321E-1,-7.161209E-2,-2.3928176E-1,1E0,2.2613178E-1,1E0,2.1291584E-1,-6.87578E-3,-1.9007196E-1],"split_indices":[1814,970,0,782,324,338,0,0,0,1334,0,816,0,0,0],"split_type":[0,0,0,0,0,0,0,0,0,0,0,0,0,0,0],"sum_hessian":[1.2484014E2,1.23411995E2,1.4281454E0,1.20244225E2,3.1677642E0,1.1810645E2,2.1377785E0,1.8505875E0,1.3171767E0,1.1682557E2,1.2808807E0,1.1528234E2,1.5432296E0,1.1140447E2,3.8778703E0],"tree_param":{"num_deleted":"0","num_feature":"2058","num_nodes":"15","size_leaf_vector":"1"}},{"base_weights":[-1.3432315E-3,1.790903E-2,-5.71359E-1,3.1710353E-2,-2.2629954E-1,-3.188123E-1,4.7720503E-2,4.0719134E-1,-6.429899E-3,6.245242E-1,-1.9018619E-1,-2.5667692E-2,2.1810494E-1,7.5810015E-1,-6.813738E-2,-5.834199E-2,4.0055913E-1,2.761537E-1,-2.8366199E-2,-2.3921244E-2,1.8584028E-1,1.9301347E-1,-1.1930087E-1],"categories":[],"categories_nodes":[],"categories_segments":[],"categories_sizes":[],"default_left":[0,0,0,0,0,0,0,0,0,0,0,0,0,0,0,0,0,0,0,0,0,0,0],"id":24,"left_children":[1,3,5,7,-1,-1,-1,9,11,13,-1,15,-1,17,-1,19,21,-1,-1,-1,-1,-1,-1],"loss_changes":[1.3844364E0,1.3252656E0,1.6482625E0,1.7342602E0,0E0,0E0,0E0,2.92236E0,1.5813513E0,1.2803054E0,0E0,1.5397968E0,0E0,1.2850094E0,0E0,1.528702E0,1.783192E0,0E0,0E0,0E0,0E0,0E0,0E0],"parents":[2147483647,0,0,1,1,2,2,3,3,7,7,8,8,9,9,11,11,13,13,15,15,16,16],"right_children":[2,4,6,8,-1,-1,-1,10,12,14,-1,16,-1,18,-1,20,22,-1,-1,-1,-1,-1,-1],"split_conditions":[1E0,1E0,1E0,3.226E1,-2.2629954E-1,-3.188123E-1,4.7720503E-2,1E0,1E0,1E0,-1.9018619E-1,1E0,2.1810494E-1,1E0,-6.813738E-2,1E0,1E0,2.761537E-1,-2.8366199E-2,-2.3921244E-2,1.8584028E-1,1.9301347E-1,-1.1930087E-1],"split_indices":[247,378,1098,2,0,0,0,332,598,748,0,1574,0,1335,0,1044,666,0,0,0,0,0,0],"split_type":[0,0,0,0,0,0,0,0,0,0,0,0,0,0,0,0,0,0,0,0,0,0,0],"sum_hessian":[1.24222565E2,1.2110097E2,3.121599E0,1.1991678E2,1.1841903E0,1.5942537E0,1.5273454E0,1.0165351E1,1.0975143E2,8.740897E0,1.4244536E0,1.07886635E2,1.8647882E0,7.6507654E0,1.0901324E0,1.01006645E2,6.879991E0,6.3597794E0,1.2909858E0,9.877123E1,2.2354164E0,5.424013E0,1.4559779E0],"tree_param":{"num_deleted":"0","num_feature":"2058","num_nodes":"23","size_leaf_vector":"1"}},{"base_weights":[1.4084402E-3,-6.064346E-2,1.8425708E-1,-5.599238E-1,-1.7114028E-2,4.7956726E-1,-1.8809594E-1,-8.9465404E-1,9.4517276E-2,4.5573795E-3,-2.7406752E-1,6.7119354E-1,-4.5712858E-1,-3.072483E-1,1.4469503E-1,-1.9778503E-2,-3.919134E-1,9.409369E-2,-2.1222828E-1,7.8252727E-1,-8.2641445E-2,1.14302084E-1,-2.7829963E-1,-4.7923318E-1,3.719665E-1,1.7023474E-1,-4.4083863E-1,-7.540445E-1,4.2605467E-2,8.7656754E-1,-2.8840378E-2,-5.6285065E-1,6.7422003E-3,1.8109679E-1,-3.177102E-3,1.6203776E-2,1.9092895E-1,-1.8863077E-1,9.957308E-2,-3.1502005E-1,1.8273988E-1,8.479077E-2,-1.9166318E-1,2.7742743E-1,6.2294003E-2,-3.8876275E-3,-2.0386297E-1],"categories":[],"categories_nodes":[],"categories_segments":[],"categories_sizes":[],"default_left":[0,0,0,0,0,0,0,0,0,0,0,0,0,0,0,0,0,0,0,0,0,0,0,0,0,0,0,0,0,0,0,0,0,0,0,0,0,0,0,0,0,0,0,0,0,0,0],"id":25,"left_children":[1,3,5,7,9,11,13,15,-1,17,-1,19,21,23,-1,-1,-1,25,27,29,-1,-1,-1,31,33,35,37,39,41,43,-1,45,-1,-1,-1,-1,-1,-1,-1,-1,-1,-1,-1,-1,-1,-1,-1],"loss_changes":[1.4113199E0,2.0091925E0,3.5555859E0,2.4543061E0,1.6840488E0,3.512167E0,1.3190504E0,1.8333111E0,0E0,1.678079E0,0E0,1.8207283E0,1.7840985E0,1.7034407E0,0E0,0E0,0E0,2.565637E0,3.522112E0,1.2317934E0,0E0,0E0,0E0,4.6804762E-1,2.901167E-1,2.9050388E0,1.3556378E0,3.9239397E0,3.1474302E0,2.1555805E-1,0E0,5.9071827E-1,0E0,0E0,0E0,0E0,0E0,0E0,0E0,0E0,0E0,0E0,0E0,0E0,0E0,0E0,0E0],"parents":[2147483647,0,0,1,1,2,2,3,3,4,4,5,5,6,6,7,7,9,9,11,11,12,12,13,13,17,17,18,18,19,19,23,23,24,24,25,25,26,26,27,27,28,28,29,29,31,31],"right_children":[2,4,6,8,10,12,14,16,-1,18,-1,20,22,24,-1,-1,-1,26,28,30,-1,-1,-1,32,34,36,38,40,42,44,-1,46,-1,-1,-1,-1,-1,-1,-1,-1,-1,-1,-1,-1,-1,-1,-1],"split_conditions":[1E0,1.86214E2,3E0,4.4680852E-1,1E0,1E0,1E0,1E0,9.4517276E-2,8.851E1,-2.7406752E-1,1E0,7.246E1,1E0,1.4469503E-1,-1.9778503E-2,-3.919134E-1,1E0,2.7E1,1E0,-8.2641445E-2,1.14302084E-1,-2.7829963E-1,1E0,1E0,7.46E1,1E0,4E0,1E0,1E0,-2.8840378E-2,2.2727273E-1,6.7422003E-3,1.8109679E-1,-3.177102E-3,1.6203776E-2,1.9092895E-1,-1.8863077E-1,9.957308E-2,-3.1502005E-1,1.8273988E-1,8.479077E-2,-1.9166318E-1,2.7742743E-1,6.2294003E-2,-3.8876275E-3,-2.0386297E-1],"split_indices":[1181,0,3,8,296,1124,157,817,0,2,0,1253,2,749,0,0,0,1080,7,361,0,0,0,1486,399,2,1124,3,1319,1367,0,8,0,0,0,0,0,0,0,0,0,0,0,0,0,0,0],"split_type":[0,0,0,0,0,0,0,0,0,0,0,0,0,0,0,0,0,0,0,0,0,0,0,0,0,0,0,0,0,0,0,0,0,0,0,0,0,0,0,0,0,0,0,0,0,0,0],"sum_hessian":[1.22403206E2,9.1888176E1,3.0515026E1,6.4174337E0,8.547075E1,1.6857523E1,1.3657503E1,4.6254516E0,1.7919822E0,8.4424706E1,1.0460385E0,1.4229868E1,2.6276557E0,1.205642E1,1.601083E0,1.9203209E0,2.7051308E0,6.014834E1,2.4276367E1,1.2887591E1,1.3422767E0,1.0131937E0,1.6144619E0,9.855361E0,2.2010586E0,5.325054E1,6.897798E0,7.1389284E0,1.7137438E1,1.164378E1,1.2438112E0,8.342998E0,1.512364E0,1.0108829E0,1.1901758E0,4.351751E1,9.733032E0,5.698306E0,1.1994921E0,6.0539646E0,1.0849637E0,1.3106395E1,4.031044E0,1.0504546E1,1.1392334E0,1.6550292E0,6.6879683E0],"tree_param":{"num_deleted":"0","num_feature":"2058","num_nodes":"47","size_leaf_vector":"1"}},{"base_weights":[-1.0811724E-3,-1.6125731E-2,1.9151573E-1,2.4321422E-2,-2.6518795E-1,4.835076E-2,-5.591012E-1,4.6744886E-1,-4.1907722E-1,6.52575E-2,-2.2865228E-1,-2.5601214E-1,-5.3555053E-3,1.7504665E-1,2.9294703E-2,-5.4803187E-1,9.1066025E-2,9.344956E-2,-4.5420197E-1,-8.4817076E-1,-2.812152E-1,3.8720906E-2,-1.1237274E-1,2.3593413E-2,-2.3677081E-1,-3.441442E-1,1.0681311E-2,-2.2486106E-1,1.4362447E-3],"categories":[],"categories_nodes":[],"categories_segments":[],"categories_sizes":[],"default_left":[0,0,0,0,0,0,0,0,0,0,0,0,0,0,0,0,0,0,0,0,0,0,0,0,0,0,0,0,0],"id":26,"left_children":[1,3,-1,5,7,9,11,13,15,17,-1,-1,-1,-1,-1,19,-1,21,23,25,27,-1,-1,-1,-1,-1,-1,-1,-1],"loss_changes":[1.1617645E0,1.1942931E0,0E0,1.461986E0,2.0626848E0,1.4094826E0,6.4233947E-1,8.6643755E-2,1.4906044E0,1.47939E0,0E0,0E0,0E0,0E0,0E0,7.557204E-1,0E0,1.6137514E0,9.942595E-1,1.4536109E0,1.0842912E0,0E0,0E0,0E0,0E0,0E0,0E0,0E0,0E0],"parents":[2147483647,0,0,1,1,3,3,4,4,5,5,6,6,7,7,8,8,9,9,15,15,17,17,18,18,19,19,20,20],"right_children":[2,4,-1,6,8,10,12,14,16,18,-1,-1,-1,-1,-1,20,-1,22,24,26,28,-1,-1,-1,-1,-1,-1,-1,-1],"split_conditions":[1E0,1E0,1.9151573E-1,1E0,3.0769232E-1,1E0,1E0,1E0,1E0,1E0,-2.2865228E-1,-2.5601214E-1,-5.3555053E-3,1.7504665E-1,2.9294703E-2,4.661E1,9.1066025E-2,1E0,2.8669E0,4.1951E0,5.262E-1,3.8720906E-2,-1.1237274E-1,2.3593413E-2,-2.3677081E-1,-3.441442E-1,1.0681311E-2,-2.2486106E-1,1.4362447E-3],"split_indices":[1385,293,0,262,8,520,1162,571,241,1747,0,0,0,0,0,2,0,539,1,1,1,0,0,0,0,0,0,0,0],"split_type":[0,0,0,0,0,0,0,0,0,0,0,0,0,0,0,0,0,0,0,0,0,0,0,0,0,0,0,0,0],"sum_hessian":[1.18689255E2,1.1691345E2,1.7758074E0,1.01355835E2,1.5557615E1,9.822729E1,3.128546E0,2.3469028E0,1.3210712E1,9.712093E1,1.1063583E0,1.6530981E0,1.4754479E0,1.3465248E0,1.0003781E0,1.14152565E1,1.7954556E0,9.2899216E1,4.2217164E0,4.346772E0,7.068485E0,8.700196E1,5.8972554E0,1.9251587E0,2.2965574E0,3.0253155E0,1.3214566E0,2.0655193E0,5.0029655E0],"tree_param":{"num_deleted":"0","num_feature":"2058","num_nodes":"29","size_leaf_vector":"1"}},{"base_weights":[-7.4399053E-3,1.2518664E-2,-5.0854015E-1,4.4163812E-2,-3.7419158E-1,-2.0325944E-1,-8.42889E-3,6.2226336E-2,-1.8470217E-1,-5.690151E-1,7.707813E-2,8.115278E-2,-5.8157426E-1,-9.064667E-2,-2.8095925E-1,1.14444956E-1,-3.5796872E-1,-7.0843785E-3,-2.522892E-1,2.300666E-1,-1.5823957E-1,2.4765957E-2,1.96616E-1,1.6908668E-1,-1.7625138E-1,-6.007313E-2,1.6712786E-1],"categories":[],"categories_nodes":[],"categories_segments":[],"categories_sizes":[],"default_left":[0,0,0,0,0,0,0,0,0,0,0,0,0,0,0,0,0,0,0,0,0,0,0,0,0,0,0],"id":27,"left_children":[1,3,5,7,9,-1,-1,11,-1,13,-1,15,17,19,-1,21,23,-1,-1,25,-1,-1,-1,-1,-1,-1,-1],"loss_changes":[1.1890656E0,1.4201863E0,3.5067904E-1,1.3126167E0,1.2259765E0,0E0,0E0,1.3263521E0,0E0,1.1495266E0,0E0,1.5446897E0,4.3176675E-1,7.03832E-1,0E0,1.6083912E0,1.9157543E0,0E0,0E0,5.4692525E-1,0E0,0E0,0E0,0E0,0E0,0E0,0E0],"parents":[2147483647,0,0,1,1,2,2,3,3,4,4,7,7,9,9,11,11,12,12,13,13,15,15,16,16,19,19],"right_children":[2,4,6,8,10,-1,-1,12,-1,14,-1,16,18,20,-1,22,24,-1,-1,26,-1,-1,-1,-1,-1,-1,-1],"split_conditions":[1E0,1E0,7.46E1,1E0,5.625E-1,-2.0325944E-1,-8.42889E-3,1E0,-1.8470217E-1,6E0,7.707813E-2,1E0,5.833333E-1,4.5454547E-1,-2.8095925E-1,1E0,5.556E1,-7.0843785E-3,-2.522892E-1,1.0809E0,-1.5823957E-1,2.4765957E-2,1.96616E-1,1.6908668E-1,-1.7625138E-1,-6.007313E-2,1.6712786E-1],"split_indices":[1057,320,2,80,8,0,0,1628,0,5,0,1319,8,8,0,259,2,0,0,1,0,0,0,0,0,0,0],"split_type":[0,0,0,0,0,0,0,0,0,0,0,0,0,0,0,0,0,0,0,0,0,0,0,0,0,0,0],"sum_hessian":[1.17255226E2,1.1370157E2,3.5536585E0,1.0591977E2,7.7817965E0,2.325476E0,1.2281826E0,1.0397912E2,1.9406497E0,6.0214148E0,1.7603815E0,1.0185863E2,2.1204922E0,3.157793E0,2.863622E0,9.536767E1,6.4909606E0,1.0191946E0,1.1012976E0,2.0938191E0,1.0639739E0,9.114663E1,4.2210336E0,1.0040784E0,5.486882E0,1.0715398E0,1.0222793E0],"tree_param":{"num_deleted":"0","num_feature":"2058","num_nodes":"27","size_leaf_vector":"1"}},{"base_weights":[-1.1110039E-2,-4.9201638E-2,2.3490316E-1,-1.2893942E-2,-4.3085906E-1,4.207502E-1,-3.2058498E-1,-5.529594E-2,5.773782E-1,8.858092E-2,-6.9080293E-1,5.73798E-1,-1.476968E-1,-2.0876397E-1,1.372534E-1,-2.8648375E-2,-7.0754063E-1,7.5392264E-1,-2.3226006E-2,-8.790502E-1,5.7029363E-2,7.0391166E-1,-4.8429422E-2,5.284055E-2,-2.3788522E-1,-4.5574173E-2,-2.7016953E-1,5.5216845E-2,2.5516585E-1,-2.9707378E-1,-8.345844E-2,8.260163E-1,1.9787325E-2,-6.741103E-3,1.2545826E-1,-2.4160229E-1,-1.96611E-2,7.7511564E-2,2.9955125E-1],"categories":[],"categories_nodes":[],"categories_segments":[],"categories_sizes":[],"default_left":[0,0,0,0,0,0,0,0,0,0,0,0,0,0,0,0,0,0,0,0,0,0,0,0,0,0,0,0,0,0,0,0,0,0,0,0,0,0,0],"id":28,"left_children":[1,3,5,7,9,11,13,15,17,-1,19,21,-1,-1,-1,23,25,27,-1,29,-1,31,-1,33,35,-1,-1,-1,-1,-1,-1,37,-1,-1,-1,-1,-1,-1,-1],"loss_changes":[1.1024225E0,1.4027063E0,1.7640203E0,2.380375E0,1.8644874E0,1.9953394E0,1.6393516E0,1.5171292E0,7.954314E-1,0E0,1.2910218E0,1.162034E0,0E0,0E0,0E0,1.4793288E0,2.3103237E-1,1.2511778E-1,0E0,1.094985E-1,0E0,6.8538237E-1,0E0,1.7354331E0,2.3231697E0,0E0,0E0,0E0,0E0,0E0,0E0,5.14081E-1,0E0,0E0,0E0,0E0,0E0,0E0,0E0],"parents":[2147483647,0,0,1,1,2,2,3,3,4,4,5,5,6,6,7,7,8,8,10,10,11,11,15,15,16,16,17,17,19,19,21,21,23,23,24,24,31,31],"right_children":[2,4,6,8,10,12,14,16,18,-1,20,22,-1,-1,-1,24,26,28,-1,30,-1,32,-1,34,36,-1,-1,-1,-1,-1,-1,38,-1,-1,-1,-1,-1,-1,-1],"split_conditions":[1E0,1E0,1.7368E2,1E0,2.72735E2,1E0,1.7E1,1E0,1E0,8.858092E-2,1E0,1E0,-1.476968E-1,-2.0876397E-1,1.372534E-1,3.3532E0,1.4036E0,1.15384616E-1,-2.3226006E-2,6E0,5.7029363E-2,1E0,-4.8429422E-2,2.6594E0,1E0,-4.5574173E-2,-2.7016953E-1,5.5216845E-2,2.5516585E-1,-2.9707378E-1,-8.345844E-2,5.232E1,1.9787325E-2,-6.741103E-3,1.2545826E-1,-2.4160229E-1,-1.96611E-2,7.7511564E-2,2.9955125E-1],"split_indices":[1302,1486,2,362,0,237,4,1441,705,0,1038,1931,0,0,0,1,1,8,0,5,0,1622,0,1,90,0,0,0,0,0,0,2,0,0,0,0,0,0,0],"split_type":[0,0,0,0,0,0,0,0,0,0,0,0,0,0,0,0,0,0,0,0,0,0,0,0,0,0,0,0,0,0,0,0,0,0,0,0,0,0,0],"sum_hessian":[1.1540814E2,1.0062743E2,1.47807045E1,9.283014E1,7.797299E0,1.1257046E1,3.5236588E0,8.7454216E1,5.375922E0,2.0196626E0,5.777636E0,9.959265E0,1.2977811E0,2.4483993E0,1.0752594E0,8.502445E1,2.4297655E0,4.115054E0,1.2608683E0,4.762086E0,1.01555E0,8.4979725E0,1.4612917E0,6.173049E1,2.329396E1,1.0872118E0,1.3425536E0,1.0177464E0,3.0973077E0,3.4715688E0,1.2905173E0,6.885328E0,1.612645E0,5.1958668E1,9.771823E0,4.5710487E0,1.8722912E1,2.1867642E0,4.6985636E0],"tree_param":{"num_deleted":"0","num_feature":"2058","num_nodes":"39","size_leaf_vector":"1"}},{"base_weights":[-9.237076E-3,-2.2028985E-2,2.0608859E-1,9.199507E-3,-3.345464E-1,-9.099691E-3,2.0359726E-1,-5.554326E-1,2.3045024E-1,-3.176033E-2,5.103748E-1,-1.0990094E-1,-2.4777342E-1,2.3032364E-1,-1.2748162E-1,-5.0801326E-2,1.8282089E-1,2.2219943E-1,-2.1443563E-2,7.681916E-2,-3.1813502E-1,-5.7937866E-3,-1.4631113E-1,6.106872E-2,-2.0578577E-1],"categories":[],"categories_nodes":[],"categories_segments":[],"categories_sizes":[],"default_left":[0,0,0,0,0,0,0,0,0,0,0,0,0,0,0,0,0,0,0,0,0,0,0,0,0],"id":29,"left_children":[1,3,-1,5,7,9,-1,11,13,15,17,19,-1,-1,-1,21,-1,-1,-1,-1,23,-1,-1,-1,-1],"loss_changes":[1.0274018E0,1.1018274E0,0E0,1.2720063E0,1.4077833E0,1.2118069E0,0E0,8.3299565E-1,1.5900729E0,1.2305801E0,6.296464E-1,3.9004183E-1,0E0,0E0,0E0,1.3161314E0,0E0,0E0,0E0,0E0,7.204329E-1,0E0,0E0,0E0,0E0],"parents":[2147483647,0,0,1,1,3,3,4,4,5,5,7,7,8,8,9,9,10,10,11,11,15,15,20,20],"right_children":[2,4,-1,6,8,10,-1,12,14,16,18,20,-1,-1,-1,22,-1,-1,-1,-1,24,-1,-1,-1,-1],"split_conditions":[1E0,1E0,2.0608859E-1,1E0,1E0,1E0,2.0359726E-1,3.809524E-1,-2.115E-1,1E0,1.1821E2,5E0,-2.4777342E-1,2.3032364E-1,-1.2748162E-1,1E0,1.8282089E-1,2.2219943E-1,-2.1443563E-2,7.681916E-2,-4.258E-1,-5.7937866E-3,-1.4631113E-1,6.106872E-2,-2.0578577E-1],"split_indices":[338,15,0,393,1375,808,0,8,1,906,2,5,0,0,0,1037,0,0,0,0,1,0,0,0,0],"split_type":[0,0,0,0,0,0,0,0,0,0,0,0,0,0,0,0,0,0,0,0,0,0,0,0,0],"sum_hessian":[1.1266506E2,1.115832E2,1.0818632E0,1.0232852E2,9.254678E0,1.00566025E2,1.7624991E0,6.6656566E0,2.5890207E0,9.726209E1,3.3039298E0,3.0492547E0,3.6164021E0,1.3284818E0,1.260539E0,9.5351166E1,1.910931E0,2.1715271E0,1.1324025E0,1.0225185E0,2.026736E0,8.991496E1,5.4362035E0,1.0227194E0,1.0040166E0],"tree_param":{"num_deleted":"0","num_feature":"2058","num_nodes":"25","size_leaf_vector":"1"}},{"base_weights":[-2.6061982E-3,1.1481415E-2,-1.9558387E-1,2.4797508E-2,-1.9365248E-1,-5.9512123E-3,4.219345E-1,-1.1967284E-1,1.0474275E-1,7.4317306E-1,-1.5273494E-1,-1.579003E-1,2.0723353E-1,1.7702487E-1,-3.5246834E-1,4.294296E-3,2.6861265E-1,-6.4695895E-2,9.777028E-2,2.0732687E-1,2.9889293E-2,1.5999067E-1,-1.7124477E-1],"categories":[],"categories_nodes":[],"categories_segments":[],"categories_sizes":[],"default_left":[0,0,0,0,0,0,0,0,0,0,0,0,0,0,0,0,0,0,0,0,0,0,0],"id":30,"left_children":[1,3,-1,5,-1,7,9,11,13,15,-1,17,-1,19,21,-1,-1,-1,-1,-1,-1,-1,-1],"loss_changes":[1.0366709E0,9.879853E-1,0E0,1.3440335E0,0E0,1.3084903E0,2.7437117E0,1.6967793E0,1.8041122E0,6.845541E-1,0E0,1.4604063E0,0E0,1.7681807E0,1.7605355E0,0E0,0E0,0E0,0E0,0E0,0E0,0E0,0E0],"parents":[2147483647,0,0,1,1,3,3,5,5,6,6,7,7,8,8,9,9,11,11,13,13,14,14],"right_children":[2,4,-1,6,-1,8,10,12,14,16,-1,18,-1,20,22,-1,-1,-1,-1,-1,-1,-1,-1],"split_conditions":[1E0,1E0,-1.9558387E-1,1E0,-1.9365248E-1,1E0,1E0,1E0,4.5868E0,-1.3742E0,-1.5273494E-1,4.3204E0,2.0723353E-1,1E0,3E0,4.294296E-3,2.6861265E-1,-6.4695895E-2,9.777028E-2,2.0732687E-1,2.9889293E-2,1.5999067E-1,-1.7124477E-1],"split_indices":[1193,82,0,942,0,936,376,1277,1,1,0,1,0,3,4,0,0,0,0,0,0,0,0],"split_type":[0,0,0,0,0,0,0,0,0,0,0,0,0,0,0,0,0,0,0,0,0,0,0],"sum_hessian":[1.11508194E2,1.1010182E2,1.4063716E0,1.0885771E2,1.24411E0,1.0194921E2,6.908503E0,5.024688E1,5.170233E1,5.2863545E0,1.622149E0,4.8752487E1,1.4943932E0,4.5173508E1,6.528824E0,1.1022079E0,4.1841464E0,4.4048546E1,4.7039413E0,4.8734736E0,4.0300034E1,1.0058686E0,5.522955E0],"tree_param":{"num_deleted":"0","num_feature":"2058","num_nodes":"23","size_leaf_vector":"1"}},{"base_weights":[2.1514753E-3,1.7405149E-2,-1.6893238E-1,2.6810498E-3,2.068169E-1,-5.5138797E-2,1.7937134E-1,-1.3062841E-2,-6.2461543E-1,4.6938825E-1,-1.5896887E-1,-4.9724117E-2,4.9538755E-1,-8.247473E-1,2.4842585E-2,2.2916606E-2,7.018842E-1,-2.5512692E-1,1.1038525E-1,-2.4887728E-2,1.7152596E-1,2.1158773E-1,-2.763281E-3,-3.0728486E-1,-8.013748E-2,-2.1667652E-1,2.0775022E-1,2.4104312E-1,-2.4823753E-2,-1.3924165E-1,3.6923368E-2],"categories":[],"categories_nodes":[],"categories_segments":[],"categories_sizes":[],"default_left":[0,0,0,0,0,0,0,0,0,0,0,0,0,0,0,0,0,0,0,0,0,0,0,0,0,0,0,0,0,0,0],"id":31,"left_children":[1,3,-1,5,-1,7,9,11,13,15,17,19,21,23,-1,25,27,29,-1,-1,-1,-1,-1,-1,-1,-1,-1,-1,-1,-1,-1],"loss_changes":[9.679738E-1,1.0783942E0,0E0,1.111611E0,0E0,1.9570645E0,2.7066894E0,1.467312E0,8.6418295E-1,1.5094368E0,7.590122E-1,1.5572702E0,5.674788E-1,2.2409391E-1,0E0,3.526902E0,8.341336E-1,9.8137724E-1,0E0,0E0,0E0,0E0,0E0,0E0,0E0,0E0,0E0,0E0,0E0,0E0,0E0],"parents":[2147483647,0,0,1,1,3,3,5,5,6,6,7,7,8,8,9,9,10,10,11,11,12,12,13,13,15,15,16,16,17,17],"right_children":[2,4,-1,6,-1,8,10,12,14,16,18,20,22,24,-1,26,28,30,-1,-1,-1,-1,-1,-1,-1,-1,-1,-1,-1,-1,-1],"split_conditions":[1E0,1E0,-1.6893238E-1,1E0,2.068169E-1,1E0,3E0,1E0,1E0,1E0,1E0,1E0,1E0,5E0,2.4842585E-2,2.2727273E-1,1E0,1E0,1.1038525E-1,-2.4887728E-2,1.7152596E-1,2.1158773E-1,-2.763281E-3,-3.0728486E-1,-8.013748E-2,-2.1667652E-1,2.0775022E-1,2.4104312E-1,-2.4823753E-2,-1.3924165E-1,3.6923368E-2],"split_indices":[1819,1858,0,1181,0,1486,3,362,705,660,344,1619,175,5,0,8,1124,150,0,0,0,0,0,0,0,0,0,0,0,0,0],"split_type":[0,0,0,0,0,0,0,0,0,0,0,0,0,0,0,0,0,0,0,0,0,0,0,0,0,0,0,0,0,0,0],"sum_hessian":[1.1012752E2,1.0817753E2,1.9499904E0,1.068405E2,1.3370314E0,8.101667E1,2.5823828E1,7.6395134E1,4.6215396E0,1.3696339E1,1.212749E1,7.209873E1,4.296398E0,3.4731355E0,1.1484041E0,5.066157E0,8.630182E0,1.0692094E1,1.4353956E0,6.926133E1,2.8374007E0,2.7533278E0,1.5430703E0,1.9415208E0,1.5316145E0,2.3605113E0,2.7056453E0,7.619588E0,1.010594E0,6.7400455E0,3.9520485E0],"tree_param":{"num_deleted":"0","num_feature":"2058","num_nodes":"31","size_leaf_vector":"1"}},{"base_weights":[5.6281574E-3,-7.4928934E-3,1.8825497E-1,1.1105417E-2,-6.227058E-1,-1.7765058E-2,3.2575032E-1,-8.537034E-3,-2.6525244E-1,8.0668525E-4,-1.7355192E-1,4.5408407E-1,-9.925011E-2,3.6642995E-2,-3.682375E-1,6.8461967E-1,-5.6462225E-2,3.5441544E-2,-4.9302537E-2,-2.0684314E-1,2.1743063E-2,2.5059196E-1,2.6357148E-2,8.392242E-2,-1.01036645E-1],"categories":[],"categories_nodes":[],"categories_segments":[],"categories_sizes":[],"default_left":[0,0,0,0,0,0,0,0,0,0,0,0,0,0,0,0,0,0,0,0,0,0,0,0,0],"id":32,"left_children":[1,3,-1,5,7,9,11,-1,-1,13,-1,15,-1,17,19,21,23,-1,-1,-1,-1,-1,-1,-1,-1],"loss_changes":[8.9572E-1,1.2418146E0,0E0,9.663519E-1,4.6964073E-1,1.018995E0,9.034273E-1,0E0,0E0,1.278713E0,0E0,9.683374E-1,0E0,1.4625894E0,1.2615845E0,4.227996E-1,4.1285944E-1,0E0,0E0,0E0,0E0,0E0,0E0,0E0,0E0],"parents":[2147483647,0,0,1,1,3,3,4,4,5,5,6,6,9,9,11,11,13,13,14,14,15,15,16,16],"right_children":[2,4,-1,6,8,10,12,-1,-1,14,-1,16,-1,18,20,22,24,-1,-1,-1,-1,-1,-1,-1,-1],"split_conditions":[1E0,1E0,1.8825497E-1,1E0,2E0,1E0,8E-1,-8.537034E-3,-2.6525244E-1,1E0,-1.7355192E-1,1E0,-9.925011E-2,4E0,1.5054E2,4.58595E2,7.385E1,3.5441544E-2,-4.9302537E-2,-2.0684314E-1,2.1743063E-2,2.5059196E-1,2.6357148E-2,8.392242E-2,-1.01036645E-1],"split_indices":[42,1689,0,241,3,1907,8,0,0,15,0,399,0,6,2,0,2,0,0,0,0,0,0,0,0],"split_type":[0,0,0,0,0,0,0,0,0,0,0,0,0,0,0,0,0,0,0,0,0,0,0,0,0],"sum_hessian":[1.08195694E2,1.0692761E2,1.2680848E0,1.047431E2,2.1845076E0,9.680429E1,7.93881E0,1.0062972E0,1.1782104E0,9.4667465E1,2.136824E0,6.8988066E0,1.0400035E0,8.710936E1,7.5581098E0,4.5178366E0,2.38097E0,6.227161E1,2.4837746E1,4.045133E0,3.512977E0,3.2878904E0,1.229946E0,1.0835387E0,1.2974313E0],"tree_param":{"num_deleted":"0","num_feature":"2058","num_nodes":"25","size_leaf_vector":"1"}},{"base_weights":[1.5745054E-3,1.801802E-2,-4.9571767E-1,-3.2981567E-3,1.8871103E-1,-1.9420367E-1,-1.9858483E-2,1.4991713E-2,-1.9018066E-1,-8.746385E-3,4.5154563E-1,1.571496E-2,-4.973737E-1,6.359082E-1,-2.693824E-2,-1.7274672E-3,2.0581329E-1,-2.2549443E-1,-4.1434593E-2,2.2754844E-1,4.0430464E-2],"categories":[],"categories_nodes":[],"categories_segments":[],"categories_sizes":[],"default_left":[0,0,0,0,0,0,0,0,0,0,0,0,0,0,0,0,0,0,0,0,0],"id":33,"left_children":[1,3,5,7,-1,-1,-1,9,-1,11,13,15,17,19,-1,-1,-1,-1,-1,-1,-1],"loss_changes":[8.8725245E-1,1.3688414E0,1.8333966E-1,1.1905531E0,0E0,0E0,0E0,1.0452785E0,0E0,1.1586543E0,5.761981E-1,1.3377585E0,3.1831157E-1,1.437329E-1,0E0,0E0,0E0,0E0,0E0,0E0,0E0],"parents":[2147483647,0,0,1,1,2,2,3,3,7,7,9,9,10,10,11,11,12,12,13,13],"right_children":[2,4,6,8,-1,-1,-1,10,-1,12,14,16,18,20,-1,-1,-1,-1,-1,-1,-1],"split_conditions":[1E0,1E0,1.6679E0,1E0,1.8871103E-1,-1.9420367E-1,-1.9858483E-2,1E0,-1.9018066E-1,1E0,4.94531E2,1E0,3.57497E2,1E0,-2.693824E-2,-1.7274672E-3,2.0581329E-1,-2.2549443E-1,-4.1434593E-2,2.2754844E-1,4.0430464E-2],"split_indices":[394,734,1,284,0,0,0,207,0,1747,0,1454,0,304,0,0,0,0,0,0,0],"split_type":[0,0,0,0,0,0,0,0,0,0,0,0,0,0,0,0,0,0,0,0,0],"sum_hessian":[1.0641049E2,1.03937454E2,2.473039E0,1.0139477E2,2.5426853E0,1.452986E0,1.020053E0,9.9485695E1,1.9090762E0,9.528446E1,4.201232E0,9.16635E1,3.6209605E0,3.0036085E0,1.1976235E0,8.977895E1,1.8845495E0,1.480721E0,2.1402395E0,2.0006738E0,1.0029347E0],"tree_param":{"num_deleted":"0","num_feature":"2058","num_nodes":"21","size_leaf_vector":"1"}},{"base_weights":[1.419291E-3,1.4677508E-2,-1.8833877E-1,2.8031714E-2,-1.8293975E-1,8.342809E-3,1.8994768E-1,-4.0656975E-1,3.126977E-2,1.5867102E-1,-2.4285088E-1,5.036637E-2,-4.7960117E-1,-4.1732926E-2,1.13015495E-1,2.0713158E-2,-1.437928E-1,-2.1017355E-1,-2.9290486E-2],"categories":[],"categories_nodes":[],"categories_segments":[],"categories_sizes":[],"default_left":[0,0,0,0,0,0,0,0,0,0,0,0,0,0,0,0,0,0,0],"id":34,"left_children":[1,3,-1,5,-1,7,-1,9,11,13,-1,15,17,-1,-1,-1,-1,-1,-1],"loss_changes":[8.963724E-1,8.937928E-1,0E0,1.2324041E0,0E0,9.794146E-1,0E0,1.3566678E0,9.7271764E-1,2.5242046E-1,0E0,9.692793E-1,2.3533869E-1,0E0,0E0,0E0,0E0,0E0,0E0],"parents":[2147483647,0,0,1,1,3,3,5,5,7,7,8,8,9,9,11,11,12,12],"right_children":[2,4,-1,6,-1,8,-1,10,12,14,-1,16,18,-1,-1,-1,-1,-1,-1],"split_conditions":[1E0,1E0,-1.8833877E-1,1E0,-1.8293975E-1,-1.6512E0,1.8994768E-1,-3.5346E0,1E0,3.1E1,-2.4285088E-1,1E0,1.8002E0,-4.1732926E-2,1.13015495E-1,2.0713158E-2,-1.437928E-1,-2.1017355E-1,-2.9290486E-2],"split_indices":[327,1338,0,587,0,1,0,1,1057,7,0,1106,1,0,0,0,0,0,0],"split_type":[0,0,0,0,0,0,0,0,0,0,0,0,0,0,0,0,0,0,0],"sum_hessian":[1.0534489E2,1.0412749E2,1.2174009E0,1.0288249E2,1.2449931E0,1.00622345E2,2.2601428E0,4.3927555E0,9.622959E1,2.080462E0,2.3122933E0,9.3631035E1,2.5985615E0,1.0324694E0,1.0479927E0,9.128188E1,2.3491447E0,1.1177673E0,1.4807942E0],"tree_param":{"num_deleted":"0","num_feature":"2058","num_nodes":"19","size_leaf_vector":"1"}},{"base_weights":[-5.926942E-3,-1.8991863E-2,1.8313037E-1,-2.9037967E-3,-1.7573725E-1,2.0845402E-2,-3.4598044E-1,1.4589912E-1,-5.281909E-2,-6.411852E-1,9.615698E-2,4.856891E-2,6.9892037E-1,-1.03167236E-1,3.0687916E-1,-2.565599E-1,-1.841158E-2,4.8339676E-2,-1.0913892E-1,2.4155946E-1,7.4946664E-2,-1.8949252E-2,-2.2477293E-1,1.8321624E-1,-1.0480095E-1],"categories":[],"categories_nodes":[],"categories_segments":[],"categories_sizes":[],"default_left":[0,0,0,0,0,0,0,0,0,0,0,0,0,0,0,0,0,0,0,0,0,0,0,0,0],"id":35,"left_children":[1,3,-1,5,-1,7,9,11,13,15,-1,17,19,21,23,-1,-1,-1,-1,-1,-1,-1,-1,-1,-1],"loss_changes":[8.597205E-1,9.476065E-1,0E0,8.4021974E-1,0E0,8.9723045E-1,1.5190343E0,1.9070562E0,1.1454403E0,5.629895E-1,0E0,1.5318449E0,5.2863598E-2,1.366329E0,1.7691557E0,0E0,0E0,0E0,0E0,0E0,0E0,0E0,0E0,0E0,0E0],"parents":[2147483647,0,0,1,1,3,3,5,5,6,6,7,7,8,8,9,9,11,11,12,12,13,13,14,14],"right_children":[2,4,-1,6,-1,8,10,12,14,16,-1,18,20,22,24,-1,-1,-1,-1,-1,-1,-1,-1,-1,-1],"split_conditions":[1E0,1E0,1.8313037E-1,1E0,-1.7573725E-1,5.679E1,1E0,1E0,1E0,2E0,9.615698E-2,1E0,1E0,1E0,1E0,-2.565599E-1,-1.841158E-2,4.8339676E-2,-1.0913892E-1,2.4155946E-1,7.4946664E-2,-1.8949252E-2,-2.2477293E-1,1.8321624E-1,-1.0480095E-1],"split_indices":[1334,903,0,1037,0,2,945,666,157,3,0,293,1335,2014,1289,0,0,0,0,0,0,0,0,0,0],"split_type":[0,0,0,0,0,0,0,0,0,0,0,0,0,0,0,0,0,0,0,0,0,0,0,0,0],"sum_hessian":[1.0432191E2,1.0310558E2,1.2163264E0,1.0123718E2,1.8684012E0,9.556127E1,5.675911E0,3.5060894E1,6.0500378E1,3.9599671E0,1.7159439E0,3.073878E1,4.322115E0,5.3697365E1,6.803012E0,2.5454578E0,1.4145092E0,2.4625898E1,6.112881E0,2.8538394E0,1.4682758E0,5.16002E1,2.0971632E0,4.697363E0,2.105649E0],"tree_param":{"num_deleted":"0","num_feature":"2058","num_nodes":"25","size_leaf_vector":"1"}},{"base_weights":[-3.7801682E-3,-1.978978E-2,1.4004189E-1,-1.7603468E-3,-2.524964E-1,1.6026678E-2,-5.191989E-1,3.512666E-2,-4.3611792E-1,-2.2118379E-1,-1.3500151E-2,4.9037877E-2,-1.8350136E-1,-1.8593344E-1,-2.222808E-2,2.3211507E-2,-8.819139E-2],"categories":[],"categories_nodes":[],"categories_segments":[],"categories_sizes":[],"default_left":[0,0,0,0,0,0,0,0,0,0,0,0,0,0,0,0,0],"id":36,"left_children":[1,3,-1,5,-1,7,9,11,13,-1,-1,15,-1,-1,-1,-1,-1],"loss_changes":[7.895255E-1,1.4969174E0,0E0,9.282598E-1,0E0,8.582019E-1,3.1342918E-1,8.809221E-1,2.2205901E-1,0E0,0E0,9.315045E-1,0E0,0E0,0E0,0E0,0E0],"parents":[2147483647,0,0,1,1,3,3,5,5,6,6,7,7,8,8,11,11],"right_children":[2,4,-1,6,-1,8,10,12,14,-1,-1,16,-1,-1,-1,-1,-1],"split_conditions":[1E0,1E0,1.4004189E-1,1E0,-2.524964E-1,1E0,2.43394E2,1E0,4E0,-2.2118379E-1,-1.3500151E-2,1E0,-1.8350136E-1,-1.8593344E-1,-2.222808E-2,2.3211507E-2,-8.819139E-2],"split_indices":[1680,1068,0,558,0,1441,0,378,6,0,0,466,0,0,0,0,0],"split_type":[0,0,0,0,0,0,0,0,0,0,0,0,0,0,0,0,0],"sum_hessian":[1.0257011E2,1.0012185E2,2.4482543E0,9.895323E1,1.1686175E0,9.660157E1,2.3516662E0,9.3571144E1,3.0304222E0,1.2308269E0,1.1208394E0,9.250573E1,1.0654138E0,1.5381284E0,1.492294E0,8.61628E1,6.3429294E0],"tree_param":{"num_deleted":"0","num_feature":"2058","num_nodes":"17","size_leaf_vector":"1"}},{"base_weights":[-1.0366688E-2,-2.2710254E-2,1.7526701E-1,-6.0982835E-3,-5.4086345E-1,8.831875E-3,-1.6482948E-1,-6.5241293E-3,-2.3600858E-1,-7.276235E-3,1.6086751E-1,3.230576E-2,-2.4364805E-1,1.54291205E-2,-1.9106479E-1,-1.2425833E-1,6.794933E-2],"categories":[],"categories_nodes":[],"categories_segments":[],"categories_sizes":[],"default_left":[0,0,0,0,0,0,0,0,0,0,0,0,0,0,0,0,0],"id":37,"left_children":[1,3,-1,5,7,9,-1,-1,-1,11,-1,13,15,-1,-1,-1,-1],"loss_changes":[7.662091E-1,8.700719E-1,0E0,8.105829E-1,3.8367122E-1,8.334935E-1,0E0,0E0,0E0,9.036713E-1,0E0,1.0936425E0,1.2043701E0,0E0,0E0,0E0,0E0],"parents":[2147483647,0,0,1,1,3,3,4,4,5,5,9,9,11,11,12,12],"right_children":[2,4,-1,6,8,10,-1,-1,-1,12,-1,14,16,-1,-1,-1,-1],"split_conditions":[1E0,1E0,1.7526701E-1,1E0,3.03402E2,1E0,-1.6482948E-1,-6.5241293E-3,-2.3600858E-1,4.68553E2,1.6086751E-1,1E0,6.052632E-1,1.54291205E-2,-1.9106479E-1,-1.2425833E-1,6.794933E-2],"split_indices":[305,1788,0,80,0,900,0,0,0,0,0,844,8,0,0,0,0],"split_type":[0,0,0,0,0,0,0,0,0,0,0,0,0,0,0,0,0],"sum_hessian":[1.01589485E2,1.0046564E2,1.1238412E0,9.832511E1,2.1405299E0,9.665295E1,1.6721642E0,1.0377033E0,1.1028267E0,9.474535E1,1.9075934E0,8.189485E1,1.2850498E1,8.0516914E1,1.3779368E0,9.517143E0,3.3333552E0],"tree_param":{"num_deleted":"0","num_feature":"2058","num_nodes":"17","size_leaf_vector":"1"}},{"base_weights":[-1.0411169E-2,6.601377E-3,-4.5275602E-1,2.2261318E-2,-1.82806E-1,2.305358E-2,-2.4844939E-1,3.6488667E-2,-1.7231005E-1,8.507197E-2,-1.4745587E-1,1.1132122E-1,-4.2203644E-1,-5.1966137E-1,3.683924E-2,3.9922625E-2,-2.0221041E-1,-2.1424435E-1,3.0230327E-2,5.6087423E-2,-2.085318E-1,-1.2350014E-1,1.1810152E-1],"categories":[],"categories_nodes":[],"categories_segments":[],"categories_sizes":[],"default_left":[0,0,0,0,0,0,0,0,0,0,0,0,0,0,0,0,0,0,0,0,0,0,0],"id":38,"left_children":[1,3,5,7,-1,-1,-1,9,-1,11,13,15,17,19,21,-1,-1,-1,-1,-1,-1,-1,-1],"loss_changes":[7.672496E-1,9.6639514E-1,8.1429356E-1,8.4686023E-1,0E0,0E0,0E0,8.7020624E-1,0E0,1.066005E0,1.419709E0,1.3467525E0,6.7921466E-1,9.7642624E-1,2.4970393E0,0E0,0E0,0E0,0E0,0E0,0E0,0E0,0E0],"parents":[2147483647,0,0,1,1,2,2,3,3,7,7,9,9,10,10,11,11,12,12,13,13,14,14],"right_children":[2,4,6,8,-1,-1,-1,10,-1,12,14,16,18,20,22,-1,-1,-1,-1,-1,-1,-1,-1],"split_conditions":[1E0,1E0,1E0,1E0,-1.82806E-1,2.305358E-2,-2.4844939E-1,1E0,-1.7231005E-1,1E0,1.906E0,1E0,2.962963E-1,1E0,4E0,3.9922625E-2,-2.0221041E-1,-2.1424435E-1,3.0230327E-2,5.6087423E-2,-2.085318E-1,-1.2350014E-1,1.1810152E-1],"split_indices":[247,1444,1462,1275,0,0,0,1335,0,2014,1,841,8,1927,4,0,0,0,0,0,0,0,0],"split_type":[0,0,0,0,0,0,0,0,0,0,0,0,0,0,0,0,0,0,0,0,0,0,0],"sum_hessian":[1.0055733E2,9.778172E1,2.7756007E0,9.629733E1,1.4843903E0,1.481252E0,1.2943487E0,9.4971466E1,1.3258723E0,7.5553764E1,1.9417696E1,7.2577446E1,2.9763181E0,5.8278832E0,1.3589813E1,7.142942E1,1.1480267E0,1.6746373E0,1.3016809E0,1.1461271E0,4.681756E0,5.9533353E0,7.636478E0],"tree_param":{"num_deleted":"0","num_feature":"2058","num_nodes":"23","size_leaf_vector":"1"}},{"base_weights":[-1.7991457E-2,-3.7723403E-2,4.4639844E-1,-1.4347142E-2,-4.753741E-1,-4.3931913E-2,2.1481046E-1,-5.0668787E-2,3.003384E-1,-2.2600988E-1,-1.2515527E-1,6.9965334E-3,-3.157126E-1,-1.2412824E-1,4.5939118E-1,-1.3359268E-1,7.9530254E-2,-3.2754425E-2,4.2451832E-1,-4.9389306E-1,3.7950072E-1,8.688408E-2,-1.4043213E-1,6.2345946E-1,-4.4698227E-2,4.3358766E-2,-3.9538544E-2,1.2134932E-3,1.8887086E-1,-2.0634632E-1,-2.3048813E-2,1.5409957E-1,7.835165E-3,2.7147117E-1,-3.440153E-2],"categories":[],"categories_nodes":[],"categories_segments":[],"categories_sizes":[],"default_left":[0,0,0,0,0,0,0,0,0,0,0,0,0,0,0,0,0,0,0,0,0,0,0,0,0,0,0,0,0,0,0,0,0,0,0],"id":39,"left_children":[1,3,5,7,9,-1,-1,11,13,-1,15,17,19,21,23,-1,-1,25,27,29,31,-1,-1,33,-1,-1,-1,-1,-1,-1,-1,-1,-1,-1,-1],"loss_changes":[9.360624E-1,9.870749E-1,7.708904E-1,1.0811027E0,3.8225985E-1,0E0,0E0,1.2930815E0,7.182509E-1,0E0,5.385112E-1,1.1814303E0,2.0596492E0,6.275525E-1,8.2526946E-1,0E0,0E0,1.1631327E0,5.308746E-1,9.553337E-1,1.5958309E-1,0E0,0E0,1.3443427E0,0E0,0E0,0E0,0E0,0E0,0E0,0E0,0E0,0E0,0E0,0E0],"parents":[2147483647,0,0,1,1,2,2,3,3,4,4,7,7,8,8,10,10,11,11,12,12,13,13,14,14,17,17,18,18,19,19,20,20,23,23],"right_children":[2,4,6,8,10,-1,-1,12,14,-1,16,18,20,22,24,-1,-1,26,28,30,32,-1,-1,34,-1,-1,-1,-1,-1,-1,-1,-1,-1,-1,-1],"split_conditions":[1E0,1E0,3.76449E2,1E0,2.49992E0,-4.3931913E-2,2.1481046E-1,4.37515E2,4E0,-2.2600988E-1,1E0,2.8E1,1E0,1E0,1E0,-1.3359268E-1,7.9530254E-2,3E0,2.1044E0,1E0,2.7597E0,8.688408E-2,-1.4043213E-1,1E0,-4.4698227E-2,4.3358766E-2,-3.9538544E-2,1.2134932E-3,1.8887086E-1,-2.0634632E-1,-2.3048813E-2,1.5409957E-1,7.835165E-3,2.7147117E-1,-3.440153E-2],"split_indices":[1948,252,0,1801,1,0,0,0,4,0,90,7,237,1921,232,0,0,5,1,1181,1,0,0,11,0,0,0,0,0,0,0,0,0,0,0],"split_type":[0,0,0,0,0,0,0,0,0,0,0,0,0,0,0,0,0,0,0,0,0,0,0,0,0,0,0,0,0,0,0,0,0,0,0],"sum_hessian":[9.931551E1,9.614891E1,3.1666033E0,9.225412E1,3.8947923E0,1.1328198E0,2.0337837E0,8.3459984E1,8.794135E0,1.5295533E0,2.3652391E0,6.934604E1,1.4113946E1,2.4569125E0,6.3372226E0,1.2218246E0,1.1434144E0,6.4159195E1,5.186848E0,1.1465074E1,2.6488726E0,1.1871011E0,1.2698113E0,4.9716887E0,1.365534E0,2.2831442E1,4.132775E1,2.0345573E0,3.1522908E0,7.3829293E0,4.0821443E0,1.5911996E0,1.057673E0,3.4357297E0,1.5359589E0],"tree_param":{"num_deleted":"0","num_feature":"2058","num_nodes":"35","size_leaf_vector":"1"}},{"base_weights":[-1.0350921E-2,-2.3704141E-2,1.5165512E-1,-5.257028E-3,-4.8424616E-1,1.9084694E-2,-3.0982542E-1,-2.8134217E-2,-1.8752794E-1,-4.7907922E-3,3.766841E-1,-4.7356611E-1,8.478163E-2,1.2115171E-2,-1.6962874E-1,9.540977E-2,2.0303996E-1,-1.1211998E-1,-2.2152843E-1,-4.754095E-3,1.1247015E-1,-6.249443E-2,7.988171E-2,4.7850493E-2,-1.17701165E-1],"categories":[],"categories_nodes":[],"categories_segments":[],"categories_sizes":[],"default_left":[0,0,0,0,0,0,0,0,0,0,0,0,0,0,0,0,0,0,0,0,0,0,0,0,0],"id":40,"left_children":[1,3,-1,5,7,9,11,-1,-1,13,15,17,-1,19,-1,21,-1,23,-1,-1,-1,-1,-1,-1,-1],"loss_changes":[6.9002146E-1,8.2070315E-1,0E0,7.041457E-1,1.4601672E-1,7.5444317E-1,8.155946E-1,0E0,0E0,7.994423E-1,4.0222573E-1,4.801178E-1,0E0,8.393369E-1,0E0,2.6401547E-1,0E0,3.4158045E-1,0E0,0E0,0E0,0E0,0E0,0E0,0E0],"parents":[2147483647,0,0,1,1,3,3,4,4,5,5,6,6,9,9,10,10,11,11,13,13,15,15,17,17],"right_children":[2,4,-1,6,8,10,12,-1,-1,14,16,18,-1,20,-1,22,-1,24,-1,-1,-1,-1,-1,-1,-1],"split_conditions":[1E0,1E0,1.5165512E-1,1E0,3.08768E2,1E0,5.625E-1,-2.8134217E-2,-1.8752794E-1,1E0,1E0,6E0,8.478163E-2,1E0,-1.6962874E-1,1E0,2.0303996E-1,4.318182E-1,-2.2152843E-1,-4.754095E-3,1.1247015E-1,-6.249443E-2,7.988171E-2,4.7850493E-2,-1.17701165E-1],"split_indices":[1304,1057,0,320,0,1359,8,0,0,903,1124,5,0,677,0,388,0,8,0,0,0,0,0,0,0],"split_type":[0,0,0,0,0,0,0,0,0,0,0,0,0,0,0,0,0,0,0,0,0,0,0,0,0],"sum_hessian":[9.7430534E1,9.590216E1,1.528373E0,9.318118E1,2.720978E0,8.715307E1,6.0281115E0,1.162911E0,1.558067E0,8.262325E1,4.529822E0,4.8799825E0,1.148129E0,8.115444E1,1.4688095E0,3.0186212E0,1.5112007E0,2.6656268E0,2.2143557E0,7.6234856E1,4.919583E0,1.00786E0,2.0107613E0,1.5723251E0,1.0933017E0],"tree_param":{"num_deleted":"0","num_feature":"2058","num_nodes":"25","size_leaf_vector":"1"}},{"base_weights":[-8.291934E-3,-2.0261282E-2,1.6913247E-1,-3.707438E-2,3.8851553E-1,-1.5116562E-2,-4.7160548E-1,-3.602498E-2,1.9276649E-1,9.8575145E-2,-9.659031E-2,-2.0639646E-1,3.327678E-2,1.8624514E-1,-2.4724865E-1,-5.7061845E-1,-1.7679479E-2,1.7238514E-2,1.8873219E-1,-1.3129579E-1,6.790391E-2,-2.662755E-1,-7.097954E-2,1.20473705E-1,-2.1043092E-2],"categories":[],"categories_nodes":[],"categories_segments":[],"categories_sizes":[],"default_left":[0,0,0,0,0,0,0,0,0,0,0,0,0,0,0,0,0,0,0,0,0,0,0,0,0],"id":41,"left_children":[1,3,-1,5,7,9,11,-1,-1,13,15,-1,-1,17,19,21,23,-1,-1,-1,-1,-1,-1,-1,-1],"loss_changes":[6.785821E-1,6.769619E-1,0E0,8.8505733E-1,5.8048075E-1,8.4357595E-1,6.3908815E-1,0E0,0E0,1.2006962E0,1.9708753E0,0E0,0E0,1.7291623E0,8.323393E-1,5.86781E-1,1.0495034E0,0E0,0E0,0E0,0E0,0E0,0E0,0E0,0E0],"parents":[2147483647,0,0,1,1,3,3,4,4,5,5,6,6,9,9,10,10,13,13,14,14,15,15,16,16],"right_children":[2,4,-1,6,8,10,12,-1,-1,14,16,-1,-1,18,20,22,24,-1,-1,-1,-1,-1,-1,-1,-1],"split_conditions":[1E0,1E0,1.6913247E-1,1E0,3.76449E2,6.216E1,7.9310346E-1,-3.602498E-2,1.9276649E-1,1E0,6.751E1,-2.0639646E-1,3.327678E-2,1E0,2.3E1,9.468E-1,7.268E1,1.7238514E-2,1.8873219E-1,-1.3129579E-1,6.790391E-2,-2.662755E-1,-7.097954E-2,1.20473705E-1,-2.1043092E-2],"split_indices":[305,1948,0,539,0,2,8,0,0,293,2,0,0,1124,7,1,2,0,0,0,0,0,0,0,0],"split_type":[0,0,0,0,0,0,0,0,0,0,0,0,0,0,0,0,0,0,0,0,0,0,0,0,0],"sum_hessian":[9.643439E1,9.5402855E1,1.0315307E0,9.250731E1,2.895546E0,8.904258E1,3.4647305E0,1.1401724E0,1.7553737E0,3.708408E1,5.19585E1,2.3943133E0,1.070417E0,2.9952301E1,7.1317806E0,6.5258207E0,4.543268E1,2.4079718E1,5.872583E0,5.1408486E0,1.9909322E0,2.498039E0,4.027782E0,4.3128576E0,4.111982E1],"tree_param":{"num_deleted":"0","num_feature":"2058","num_nodes":"25","size_leaf_vector":"1"}},{"base_weights":[-4.104367E-3,7.93937E-3,-1.7068674E-1,3.3626264E-1,-1.3984501E-2,5.3880435E-1,-9.566613E-2,-2.9295832E-2,1.783978E-1,2.289467E-1,-3.7205677E-2,-4.401558E-2,1.6327526E-1,-1.8886069E-2,-3.8697705E-1,-4.8636418E-4,-1.8419483E-1,7.961952E-2,-1.7303145E-1],"categories":[],"categories_nodes":[],"categories_segments":[],"categories_sizes":[],"default_left":[0,0,0,0,0,0,0,0,0,0,0,0,0,0,0,0,0,0,0],"id":42,"left_children":[1,3,-1,5,7,9,-1,11,-1,-1,-1,13,-1,15,17,-1,-1,-1,-1],"loss_changes":[6.573424E-1,6.8813E-1,0E0,9.6574223E-1,8.557926E-1,8.295442E-1,0E0,7.7286685E-1,0E0,0E0,0E0,7.460582E-1,0E0,8.465983E-1,8.8562405E-1,0E0,0E0,0E0,0E0],"parents":[2147483647,0,0,1,1,3,3,4,4,5,5,7,7,11,11,13,13,14,14],"right_children":[2,4,-1,6,8,10,-1,12,-1,-1,-1,14,-1,16,18,-1,-1,-1,-1],"split_conditions":[1E0,2.693E1,-1.7068674E-1,1E0,1E0,1E0,-9.566613E-2,1E0,1.783978E-1,2.289467E-1,-3.7205677E-2,1E0,1.6327526E-1,1E0,-4.258E-1,-4.8636418E-4,-1.8419483E-1,7.961952E-2,-1.7303145E-1],"split_indices":[378,2,0,749,598,705,0,748,0,0,0,735,0,2042,1,0,0,0,0],"split_type":[0,0,0,0,0,0,0,0,0,0,0,0,0,0,0,0,0,0,0],"sum_hessian":[9.496247E1,9.394532E1,1.0171537E0,4.983071E0,8.896225E1,3.9419804E0,1.0410904E0,8.77077E1,1.2545491E0,2.8320289E0,1.1099514E0,8.641321E1,1.2944885E0,8.149683E1,4.916378E0,8.017358E1,1.3232591E0,1.0182E0,3.8981779E0],"tree_param":{"num_deleted":"0","num_feature":"2058","num_nodes":"19","size_leaf_vector":"1"}},{"base_weights":[-2.2076985E-3,-1.546732E-2,1.4645818E-1,-3.0774284E-2,4.3706593E-1,-1.7096821E-2,-1.7735463E-1,1.0442061E-2,1.8448685E-1,-3.7279382E-2,4.2987698E-1,-9.1563305E-3,-4.2969352E-1,1.9741105E-1,-9.7469176E-4,-1.0562296E-2,1.24580584E-1,3.9846893E-2,-2.2513883E-1],"categories":[],"categories_nodes":[],"categories_segments":[],"categories_sizes":[],"default_left":[0,0,0,0,0,0,0,0,0,0,0,0,0,0,0,0,0,0,0],"id":43,"left_children":[1,3,-1,5,7,9,-1,-1,-1,11,13,15,17,-1,-1,-1,-1,-1,-1],"loss_changes":[6.2569207E-1,6.613113E-1,0E0,6.90487E-1,2.0227587E-1,8.302173E-1,0E0,0E0,0E0,9.592261E-1,3.9535666E-1,9.263741E-1,1.1488692E0,0E0,0E0,0E0,0E0,0E0,0E0],"parents":[2147483647,0,0,1,1,3,3,4,4,5,5,9,9,10,10,11,11,12,12],"right_children":[2,4,-1,6,8,10,-1,-1,-1,12,14,16,18,-1,-1,-1,-1,-1,-1],"split_conditions":[1E0,1E0,1.4645818E-1,1E0,3.4375E-1,1E0,-1.7735463E-1,1.0442061E-2,1.8448685E-1,1E0,1E0,1E0,9.235E1,1.9741105E-1,-9.7469176E-4,-1.0562296E-2,1.24580584E-1,3.9846893E-2,-2.2513883E-1],"split_indices":[845,2028,0,416,8,24,0,0,0,1319,399,557,2,0,0,0,0,0,0],"split_type":[0,0,0,0,0,0,0,0,0,0,0,0,0,0,0,0,0,0,0],"sum_hessian":[9.406147E1,9.252813E1,1.5333426E0,9.040226E1,2.1258664E0,8.92544E1,1.1478589E0,1.0184755E0,1.1073908E0,8.6275345E1,2.9790623E0,8.1460655E1,4.8146877E0,1.6111014E0,1.3679609E0,7.761375E1,3.8469074E0,1.9612564E0,2.8534315E0],"tree_param":{"num_deleted":"0","num_feature":"2058","num_nodes":"19","size_leaf_vector":"1"}},{"base_weights":[1.6655859E-3,-1.0333896E-2,1.6442008E-1,1.0971485E-2,-3.7536192E-1,-7.899519E-3,5.353627E-1,2.2197695E-2,-2.0002866E-1,-2.6115842E-2,1.69252E-1,1.9144024E-1,5.07631E-2,-2.5546229E-2,3.3894498E-2,-5.668996E-2,3.2279372E-1,-2.7388666E-2,8.937922E-2,1.6003552E-1,-1.1874088E-1],"categories":[],"categories_nodes":[],"categories_segments":[],"categories_sizes":[],"default_left":[0,0,0,0,0,0,0,0,0,0,0,0,0,0,0,0,0,0,0,0,0],"id":44,"left_children":[1,3,-1,5,7,9,11,13,-1,15,-1,-1,-1,-1,-1,17,19,-1,-1,-1,-1],"loss_changes":[6.2513876E-1,7.307546E-1,0E0,8.8745075E-1,6.150172E-1,9.227983E-1,9.2327595E-3,4.0409174E-2,0E0,9.2935634E-1,0E0,0E0,0E0,0E0,0E0,1.001265E0,1.2753596E0,0E0,0E0,0E0,0E0],"parents":[2147483647,0,0,1,1,3,3,4,4,5,5,6,6,7,7,9,9,15,15,16,16],"right_children":[2,4,-1,6,8,10,12,14,-1,16,-1,-1,-1,-1,-1,18,20,-1,-1,-1,-1],"split_conditions":[1E0,1E0,1.6442008E-1,1E0,1E0,1E0,1E0,1.1857E0,-2.0002866E-1,1E0,1.69252E-1,1.9144024E-1,5.07631E-2,-2.5546229E-2,3.3894498E-2,1E0,7.7272725E-1,-2.7388666E-2,8.937922E-2,1.6003552E-1,-1.1874088E-1],"split_indices":[234,723,0,587,817,960,936,1,0,241,0,0,0,0,0,1467,8,0,0,0,0],"split_type":[0,0,0,0,0,0,0,0,0,0,0,0,0,0,0,0,0,0,0,0,0],"sum_hessian":[9.348212E1,9.243329E1,1.0488336E0,8.825226E1,4.1810255E0,8.613741E1,2.1148477E0,2.1591308E0,2.0218947E0,8.4404106E1,1.733303E0,1.071336E0,1.0435117E0,1.0177078E0,1.141423E0,7.837391E1,6.030197E0,7.208233E1,6.2915854E0,4.862418E0,1.1677793E0],"tree_param":{"num_deleted":"0","num_feature":"2058","num_nodes":"21","size_leaf_vector":"1"}},{"base_weights":[6.9530886E-3,2.0973066E-2,-1.3483307E-1,3.3884164E-2,-1.4306545E-1,4.7897793E-2,-1.4084229E-1,6.4508796E-2,-3.7944645E-1,8.059475E-2,-1.519756E-1,-1.6983786E-1,6.220261E-3,3.536192E-2,-4.3864667E-2],"categories":[],"categories_nodes":[],"categories_segments":[],"categories_sizes":[],"default_left":[0,0,0,0,0,0,0,0,0,0,0,0,0,0,0],"id":45,"left_children":[1,3,-1,5,-1,7,-1,9,11,13,-1,-1,-1,-1,-1],"loss_changes":[6.0999686E-1,6.0763276E-1,0E0,6.617409E-1,0E0,6.568026E-1,0E0,8.363779E-1,2.7158022E-1,7.366742E-1,0E0,0E0,0E0,0E0,0E0],"parents":[2147483647,0,0,1,1,3,3,5,5,7,7,8,8,9,9],"right_children":[2,4,-1,6,-1,8,-1,10,12,14,-1,-1,-1,-1,-1],"split_conditions":[1E0,1E0,-1.3483307E-1,1E0,-1.4306545E-1,1E0,-1.4084229E-1,1E0,1E0,1E0,-1.519756E-1,-1.6983786E-1,6.220261E-3,3.536192E-2,-4.3864667E-2],"split_indices":[1177,1310,0,79,0,203,0,1466,885,232,0,0,0,0,0],"split_type":[0,0,0,0,0,0,0,0,0,0,0,0,0,0,0],"sum_hessian":[9.2858665E1,9.1016785E1,1.8418844E0,8.9624466E1,1.3923177E0,8.807722E1,1.5472494E0,8.559901E1,2.4782124E0,8.408935E1,1.5096604E0,1.407127E0,1.0710853E0,7.2631935E1,1.1457409E1],"tree_param":{"num_deleted":"0","num_feature":"2058","num_nodes":"15","size_leaf_vector":"1"}},{"base_weights":[-3.009029E-3,9.42417E-3,-1.3864258E-1,2.5152354E-2,-3.75479E-1,3.9115634E-2,-1.5376209E-1,-1.886441E-1,4.1254107E-2,5.34815E-2,-1.4414531E-1,7.646853E-2,-2.829163E-1,3.0109538E-2,-9.6892E-2,-1.628328E-1,7.796846E-2],"categories":[],"categories_nodes":[],"categories_segments":[],"categories_sizes":[],"default_left":[0,0,0,0,0,0,0,0,0,0,0,0,0,0,0,0,0],"id":46,"left_children":[1,3,-1,5,7,9,-1,-1,-1,11,-1,13,15,-1,-1,-1,-1],"loss_changes":[5.3587747E-1,5.6419206E-1,0E0,6.8807304E-1,5.621545E-1,6.799802E-1,0E0,0E0,0E0,6.881557E-1,0E0,8.100544E-1,9.4873637E-1,0E0,0E0,0E0,0E0],"parents":[2147483647,0,0,1,1,3,3,4,4,5,5,9,9,11,11,12,12],"right_children":[2,4,-1,6,8,10,-1,-1,-1,12,-1,14,16,-1,-1,-1,-1],"split_conditions":[1E0,1E0,-1.3864258E-1,1E0,1E0,1E0,-1.5376209E-1,-1.886441E-1,4.1254107E-2,1E0,-1.4414531E-1,1E0,1E0,3.0109538E-2,-9.6892E-2,-1.628328E-1,7.796846E-2],"split_indices":[1068,247,0,1444,1098,951,0,0,0,1037,0,252,945,0,0,0,0],"split_type":[0,0,0,0,0,0,0,0,0,0,0,0,0,0,0,0,0],"sum_hessian":[9.21108E1,9.063588E1,1.4749222E0,8.797562E1,2.6602685E0,8.6652596E1,1.3230188E0,1.629692E0,1.0305766E0,8.519422E1,1.4583722E0,8.046828E1,4.725945E0,7.663248E1,3.835799E0,3.1959937E0,1.5299513E0],"tree_param":{"num_deleted":"0","num_feature":"2058","num_nodes":"17","size_leaf_vector":"1"}},{"base_weights":[-1.0054149E-2,-2.4461292E-2,1.286475E-1,-7.4175335E-3,-2.0873018E-1,-2.390598E-2,1.6178408E-1,-4.523827E-2,3.4594068E-1,-5.9427105E-2,1.5336475E-1,1.7149454E-1,-1.852558E-2,-1.0878296E-2,-1.1595193E-1],"categories":[],"categories_nodes":[],"categories_segments":[],"categories_sizes":[],"default_left":[0,0,0,0,0,0,0,0,0,